intent -0.0244466 -0.0122499 0.019292 -0.0099662 -0.00531012 0.00103031 -0.00996174 0.00164943 0.00589084 -0.021526 0.00359294 0.00946387 -0.00259121 0.00719683 0.024273 -0.00913038 -0.00684265 0.0157245 0.0162666 0.0107354 0.00957106 0.002617 0.000277436 0.0013943 0.0306909 0.0205005 0.00633991 -0.0207231 0.0157114 0.0191219 0.0102404 0.0133185 -0.0100513 -0.0161758 -0.0045719 -0.010113 0.0213959 -0.0116691 -0.0143818 -0.00268698 0.0158233 -0.00313484 0.0163481 0.0156611 -0.0106082 -0.00687531 0.0163522 -0.0190075 0.0192146 -0.0195888 
四处 -0.00383143 -0.00509321 0.00648015 0.00945079 -0.00193064 0.00841556 -0.0025154 0.00502603 -0.00282968 -0.0105454 0.00650197 0.00942545 0.00633227 0.00848133 0.0013584 0.00440389 0.00998732 -0.00596149 0.00488497 0.00682168 -0.0059741 0.00908942 -0.00419537 -0.00723707 0.00676339 -0.00226661 -0.00132965 -0.00501789 0.00545296 0.00457908 -0.00427434 -0.00419868 0.00282373 0.00692237 0.00624901 0.00875585 -0.000484465 0.0061936 -0.00737854 0.00278759 -0.00395283 -0.0103292 0.00777596 -0.00334385 -0.00323771 -0.00101839 0.0101954 -0.0072044 -0.00808641 -0.00564487 
合作 -0.0118686 0.00604029 0.0103393 0.00728037 0.00142166 0.000910596 -0.00566743 0.00409576 0.00446541 -0.00597796 0.00638603 -0.000299683 0.000865229 -0.00512658 -0.00583126 0.00176188 -0.000284058 -0.00267289 -0.00390114 0.00370475 0.00172214 0.000617036 -0.000533229 -0.00948496 0.00833716 -0.00584107 0.000438422 -0.00359105 -0.00471381 -0.00119338 0.00369063 0.00595763 0.00101403 -0.00766867 -0.00984749 0.00716791 0.00151847 -0.00167212 0.00701908 -0.000599518 -0.00509278 0.00874024 -0.000489496 0.0056052 -0.00666893 0.00844784 -0.00842021 -0.00755742 0.00439372 -0.00566924 
越来越 -0.00447575 -0.00439176 -0.00716999 -0.00165832 0.00531856 0.00865914 0.00328306 -0.00537391 -0.00793394 -0.00885737 0.000711584 0.00431471 -0.00417125 0.00599033 0.00600307 -0.00350568 -0.00199771 0.00518063 0.00924913 0.000552786 -0.00670634 -0.00736817 0.00185771 0.00319767 0.0102817 0.00497888 -0.00214821 0.00486881 0.000340752 -0.007537 0.00697365 -0.0077187 -0.00767477 -0.010192 0.00135017 0.00431938 0.010889 -0.010334 0.000837696 0.00716864 0.00962443 0.00329429 -0.00332199 -0.00460827 0.00905976 -0.000855794 0.00184218 -0.00257546 -0.00703949 -0.00984503 
第三方 -0.00990426 -0.00422824 -0.00169027 0.00915804 -0.00866052 -0.00150798 -0.00330462 0.00259598 0.00801775 -0.0107446 0.000938518 0.00478751 -0.00421733 0.0129039 0.0148526 -0.00582936 0.0039628 0.00637382 0.0143145 0.000400579 -2.12361e-05 0.0113265 0.00217078 0.00141694 0.000852083 0.0169215 0.0087217 -0.00188597 0.00438218 0.0208693 0.0139352 0.00494761 0.00405445 -0.00288652 -0.00375846 -0.00954572 0.00327756 -0.00757886 -0.00458325 0.0036602 -0.00574173 -0.00601561 0.00174278 -0.000907604 0.000297406 0.00171993 0.00134148 -0.0139384 0.00909917 -0.00454338 
奔赴 -0.00761355 0.0026622 0.00427788 -0.00204386 0.0031171 -0.00596103 -0.00883416 0.00680191 0.00921943 -0.00241287 0.00482289 0.0115274 0.000385272 0.00487275 0.00142633 0.00996143 0.00360414 -0.00428809 0.00897028 0.00106227 -0.000359827 -0.00305643 -0.000430093 -0.00633067 0.00557486 0.000797179 -0.0025676 -0.00893489 0.00217695 0.00624641 -0.00623832 -0.00220779 -0.0100615 0.00503019 0.00264798 -0.00452857 -0.00374926 0.00202948 -0.00363489 -0.0063471 0.00333085 -0.00494686 0.00667649 -0.00505094 -0.00352679 -0.00429177 -0.00495296 -0.0114288 0.00119829 -0.00133405 
住 -0.0152098 0.00190409 -0.000542166 0.00236148 -0.00256122 -0.00712928 0.000745284 -0.0077183 -0.00453806 0.00125835 0.00565319 -0.00635322 0.00874023 0.00640051 0.0115562 0.00643105 0.00453783 0.0109678 -0.00278748 -0.00675306 -0.0070906 0.0112477 0.00954207 -0.00070414 -0.000181482 0.0107889 0.00581675 0.00187131 -0.00100711 0.0142331 -0.00479151 -0.00632171 -0.00777552 -0.000851733 0.0004253 -0.00661126 0.0143493 -0.00179455 -0.00989672 0.00490035 0.000157854 0.00108906 -0.00191565 -0.00145044 -0.0126265 0.00287286 0.00109292 -0.0120195 -0.000501606 -0.0062666 
复制 -0.00985402 0.00908874 0.000549419 0.00667224 -0.00031635 0.00779354 -0.0070753 -0.00372109 0.00314775 -0.00148445 0.00455923 -0.00333603 -0.00550227 -0.00414285 -0.00422176 0.00192904 -0.00363834 -0.00131842 0.000246836 -0.00724022 -0.00176301 -0.00739967 0.00422229 0.00526544 0.0139152 0.0123293 -0.00474515 -0.0101946 -0.00166331 -0.00261436 0.00114321 0.00803711 0.0046494 -0.00932907 -0.00450349 0.00972589 -0.00543742 -0.00118417 -0.0106513 0.00330049 0.00969242 0.00432244 0.00911976 -0.0041757 -0.000324826 0.00204028 -0.00746558 0.00414367 -0.00585363 0.00542151 
然而 -0.00772051 -0.00983927 0.00345093 -0.00781196 -0.0106942 -0.00562455 0.00410596 0.00325214 0.0075407 -0.00152845 -0.00514468 0.00886937 -0.000887709 0.00313103 0.001802 -0.00503264 -0.00166799 0.00649444 0.00944842 0.00938039 0.0108215 -0.00560895 -0.00949277 0.00756049 -0.00305325 0.0156523 0.0117578 0.00354886 0.00427694 -0.000686137 -0.00662127 -0.0045233 0.000604245 -0.0116235 -0.00939351 -0.00385911 0.00337042 0.00421113 -0.00291203 0.00762166 0.001278 -0.00948693 -0.00659203 -0.00425763 -0.00328688 -0.00611695 0.00580325 -0.00399146 -0.00151395 0.00409403 
形象 -0.00339763 -0.00307008 0.00500394 0.00180476 0.00248748 0.00486015 -0.00309135 -0.0107919 -0.00129977 -0.000674363 0.00756227 0.00186027 0.00222633 -0.00556362 0.00625009 0.00310669 0.00703173 -0.0072935 -0.00622322 -0.00333482 0.0015326 0.00500618 -0.00765169 0.00537133 0.00463212 0.0141481 -0.000805057 -0.00904 0.00548962 0.0149115 0.00549074 -0.00655421 0.00230918 -0.0023661 -0.00348213 0.00695011 -0.00172315 -0.00231443 0.000515928 -0.00868143 -0.00395248 0.00416418 -0.00440158 0.00475691 -0.00136359 -0.000357022 0.000288154 0.00498169 -0.00425545 -0.00784291 
僧 -0.00254903 0.0053398 -0.00320837 0.00149097 -0.00426725 0.000867134 0.00448323 -0.00765034 -0.00130181 -0.00401107 -0.00434273 0.00148906 -0.00829833 0.0083227 0.00538726 -0.000424884 -0.00689343 0.00477518 0.00150118 0.00732712 -0.00780607 -0.00376328 0.00234357 -0.00164567 0.00788797 -0.000990998 -0.000975849 0.00515688 0.00197996 0.0107363 0.00947904 -0.0040031 0.00927102 -0.00169604 0.00765854 -0.000872058 0.00108945 0.00844054 -0.00568213 0.00097064 -0.00182482 -0.0102839 -0.00222089 -0.00396975 -0.00715612 0.00460438 -0.00598461 0.00175179 0.00314851 -0.00601382 
一朵 -0.00892284 -0.0101988 -0.00483244 0.00811036 -0.000357644 0.00752489 0.00764061 -0.00817208 0.00399503 -0.00439934 0.0099917 0.00991111 -0.000434394 0.00333914 0.00932415 0.00617004 0.00798425 0.00167456 -0.00776651 -0.00024069 -0.00319935 -0.00878918 0.000690568 0.00724071 0.000561785 0.00872644 0.00854211 -0.00263145 -0.0064537 -0.00585739 0.00204829 -0.00629784 0.00674647 0.00272076 0.0056812 -0.000123589 -0.00536667 -0.00493321 0.00324582 -0.00899904 -0.00582227 0.00465414 0.0103519 -0.00283069 0.00223805 0.00961585 0.0017924 0.00341237 -0.00437325 -0.00592797 
正常 -0.000445199 -0.00567394 0.00922627 0.00546912 0.0045235 -0.0051653 -0.00114503 0.00374139 -0.00937963 -0.0100331 -0.00240876 -0.00597028 0.00467444 0.00308352 0.00403915 -0.00922008 0.00854763 0.00877106 0.00303325 0.00825683 -0.00144745 -0.00139375 -0.00223453 0.00821992 0.00734279 0.00640581 0.00798632 1.35439e-05 0.00899181 0.00509175 -0.00812898 -0.0022262 -0.00167106 -0.00304786 -0.00709123 -0.000513975 -0.00118142 0.00316516 0.00370887 -0.00769615 -0.00290906 0.00362315 0.00545212 0.00638523 -0.00153429 -0.00674763 -0.00700992 -0.00903763 -0.00667813 0.0028169 
理解 -0.015162 -0.000660547 0.00577427 -0.00845782 -0.00843202 0.00996819 -0.00819618 0.00910509 0.00580513 -0.00660377 -6.10034e-05 -0.0020685 0.00855957 0.0114752 0.0121495 -0.000766586 -0.00978541 -0.00870319 0.00672162 0.0102593 -0.00473972 -0.00498662 0.00429311 0.00051888 0.00194468 0.0111979 -0.00117395 -0.00240218 0.0105907 0.000639341 0.00722643 -0.00750985 -0.00614443 -0.0128762 -0.0062438 0.000171898 -0.00108592 -0.000260442 -0.00644662 0.00288985 0.00574832 -0.0107962 0.00182027 -0.00374519 -0.00549358 -0.00532862 -0.0074975 0.00550172 0.00333404 -0.000476191 
构思 -0.00956028 -0.00961674 0.00168849 -0.00676414 0.0035383 -0.00745905 0.00397636 0.00245632 -0.00956493 0.00447097 0.00922033 0.00999238 0.00929851 -0.00717673 0.00436632 -0.00250567 -0.0078115 -0.00481949 -0.00617305 -0.00314912 0.00589193 -0.000470235 0.000643456 -0.00697082 -0.00695896 -0.000975463 -0.00253479 0.00768966 -0.00149224 -0.00403252 -0.00546261 0.00248047 -0.00667366 0.00815942 -0.00779551 -0.00120087 -0.00481332 -0.00720147 -0.00746095 -0.00946777 -0.00901293 -0.00727388 -0.00105266 -0.00532633 0.00410125 0.00467843 -0.00960638 -0.000889456 0.00734859 -0.00691559 
发 0.00214396 0.00245703 0.00779963 -0.000610019 0.00175932 -0.0065252 -0.00289584 0.00243947 -0.00353345 -0.0106016 0.00826304 0.00555215 0.00542945 0.00638111 0.00839242 0.00911045 0.00288757 0.00951218 0.00762564 -0.00805593 0.00443496 0.00547615 -0.00708326 -0.0107586 -0.00368499 0.0106129 0.0115186 -0.00114993 0.0106372 0.0107085 -0.00847408 -0.00515701 0.00296754 -0.00113693 -0.00751811 0.00256432 0.0125887 0.00836595 -0.00687806 0.00301497 -0.00180517 -0.00654295 -0.00351494 -0.00276687 -0.000544104 0.00418563 -0.00662574 -0.00922551 0.0108819 -0.00474174 
武林传奇 -0.000293269 -0.000369602 0.000597451 -0.00274036 -0.00644806 -0.00755192 -0.00986127 0.000801765 0.000634054 0.00275345 -0.00882488 -0.000964797 -0.00886242 0.0101151 0.00994227 0.00494586 0.00179739 -0.000845083 -0.000389727 -0.0090205 0.00204375 0.00128676 0.0065788 0.00808465 0.00277423 -0.00383489 -0.00672387 -0.00690684 -0.00810193 0.00199057 0.00110128 -0.0065108 -0.00248177 -0.00992911 -0.00583058 0.00841001 0.00869076 0.00342041 -0.00849703 -0.00633258 0.00318476 -0.00339795 0.000255057 -0.00863735 -0.00359849 0.00436524 0.00235366 0.000114487 -0.00241571 -0.0017877 
仙鸿路 0.00326667 -0.000438614 0.00644499 0.00637861 -0.0100324 0.000750882 0.000215731 0.0013533 -0.00239858 0.00802435 -0.00724333 0.00753039 0.00687178 0.00607155 0.00711899 0.000341368 0.00937816 -0.00386089 -0.00564926 -0.00831921 -0.00294123 -0.00395641 0.00248404 -0.00228334 0.00518922 0.00721878 -0.00429788 0.00734778 -0.00416871 -0.00409773 -0.00740286 -0.00906634 -0.00457721 -0.000744628 0.00563032 -0.00183625 0.00619455 -0.00313577 -0.0068638 0.00819908 0.00237454 -0.00227604 0.00122664 -0.000792331 -0.000681614 0.00513176 -0.00308055 -0.00475086 -0.0057299 0.00101533 
有人 -0.00547518 0.00248071 0.00718694 -0.00293721 -0.00620387 0.00148648 0.0032987 -0.00361642 0.000881781 0.00686259 0.00996636 0.0103468 0.00744719 0.00260441 -0.00126377 -0.00579571 0.00908502 0.00548246 0.00872194 0.0092577 0.00961737 -0.00552444 0.00515931 -0.00956489 -0.00252388 0.00137657 0.0110149 -0.00396804 0.00658952 0.00893471 0.0018262 0.00807814 -0.00573993 -0.0061999 0.0045363 -0.00182987 0.00559881 -0.00222827 -0.00432759 -0.00251396 -0.00846096 0.00363036 0.00113426 -0.00131352 -0.00439718 -0.00802672 0.00862437 -0.000688956 -0.0036108 0.000268982 
夫妻 -0.00547687 0.00588414 0.00227795 -0.00264542 -0.0082104 -0.00146468 -0.00974733 -0.00334409 -0.000886875 -0.00940785 -0.00360143 -0.00720669 0.000922998 0.00419314 0.00294937 0.00202898 -0.00807661 -0.00797686 -0.00213226 -0.000722945 -0.00818811 -0.00739105 -7.38131e-05 0.00801368 -0.00748448 0.00100515 0.00096936 -0.000943226 -0.00913048 0.00960639 -0.00764083 -0.00318207 -0.00181089 -0.00547226 -0.00700633 -0.00491818 -0.00616385 -0.00902873 0.00742966 0.00127149 -0.00328832 -0.00679561 0.00415326 0.00541099 -0.00272963 0.00352528 0.00891578 -0.00440397 -0.00936231 0.00399099 
失 -0.0039724 0.00872518 -0.00627035 0.00390123 0.00726277 0.00459073 -0.00489015 -0.00765224 -0.00708688 -0.00347715 -0.00164822 -0.000264064 -0.0031281 0.00203758 0.0100294 0.00742265 0.00228682 -0.00797116 0.00503122 0.000423466 0.00647611 -0.0010447 0.00843061 -0.00645744 0.00680705 0.0110488 -0.00851724 0.00432262 0.0102604 -0.00177898 0.00950106 0.00692199 -0.0083501 0.000266852 -0.00463967 -0.00882287 -0.00802108 0.00731268 -0.00576792 0.00300107 -0.00693041 -0.00195621 0.00798843 0.0066987 0.00709599 0.00189301 -0.0063582 -0.00560849 0.0093127 0.00433174 
虽然 0.00506369 -0.00891003 -0.00551038 0.00667416 -0.00188685 0.0090403 -0.0116705 0.00848078 -0.00413282 -0.000679618 -0.00821342 -0.00616264 0.0020952 0.00627625 0.00789069 0.00195558 0.00861839 0.00151961 -0.00704288 3.01979e-05 0.00391322 -0.00436957 0.00198418 -0.00928446 -0.00113221 0.00671164 0.00858536 -0.00410343 0.00158632 0.0131704 0.000190385 -0.00409053 -0.0045676 -0.0107613 -0.00462978 -0.00560054 -0.000999819 0.00826717 0.00146972 -0.00264268 0.000954527 -0.00386557 0.00181527 0.000958877 0.00282602 -0.0032958 -0.00374298 0.00217051 -0.00577953 0.000484643 
泥潭 -0.00798331 -0.00781271 0.00846849 0.00620108 -0.00772703 0.000737364 0.00438146 -0.00264644 0.0080683 -0.00384549 -0.00601308 0.00488667 0.00500495 -0.00157973 0.00260842 -0.00216001 -0.00363917 0.00223097 -0.00392528 4.82658e-05 0.00145415 -0.00376164 -0.00178167 0.00283208 0.0099682 0.00815393 -0.000893725 -0.00456362 0.0030078 -0.00228058 -0.00265925 -0.00435911 0.00472934 -0.00277924 0.00771213 0.000409772 -0.0088715 -0.00793223 0.000777141 0.00830344 -0.0066945 0.00620247 -0.00016275 -0.00114886 -0.0042235 0.00606762 0.00272488 -0.00678199 0.00419115 -0.00971588 
大国医 -0.0110243 0.0047413 6.98361e-05 0.00106427 0.000757543 -0.00682293 -0.00668084 -0.00861405 -0.00661334 -0.000912903 -0.00930138 0.00844205 0.00756884 0.00998474 0.0136126 0.00993723 -0.00825103 -0.000786882 -0.00135977 0.00723984 -0.00770788 -0.00811435 -0.00590845 0.0075874 0.00792396 0.0108936 0.00502276 -0.0110281 -0.0014872 -0.0012609 0.00766874 0.00183366 0.00398609 0.000795859 0.00501262 -0.00854387 0.00924618 -0.0085825 -0.000707894 0.00350974 0.00334557 1.13962e-05 -0.00242223 -0.00239575 -0.00107903 0.00779634 0.00386464 0.00553933 0.0104422 0.00202942 
爱恋 -0.00333738 0.00751694 -0.00928932 0.00934933 0.00448163 0.00454344 0.00247499 0.0093497 0.00168872 -0.00434752 0.00561837 -0.00424752 -0.0098128 0.00567837 0.000103993 0.00705989 0.00546234 7.9257e-05 0.00875 -0.00549732 -0.00346296 -0.0048858 0.00899314 -0.00138743 0.000134695 -0.00861704 -0.00192128 0.0036743 -0.00207572 -0.0046566 -0.00248572 0.000323053 0.00183744 -0.0102402 0.00937136 -0.00803416 0.00655132 0.00688459 0.00084347 -0.004778 -0.00664489 0.00985677 -0.00171993 -0.00800644 -0.0044544 -0.0031266 0.00607707 -0.00377176 0.00380709 0.00225293 
涅 0.00323833 -0.00907992 0.00255144 0.00814956 -0.00181424 0.0032642 -0.00713172 0.0097552 0.00654322 -0.000747513 0.00366629 -0.0076531 -0.0064955 0.00524154 0.00909906 -0.00770366 -0.0030927 0.00344731 -0.00618777 -0.00680818 -0.00878312 6.34059e-06 -0.00233151 -0.00212847 -0.0044404 -0.00694497 -0.00300889 -0.00727376 -0.000756249 0.0093268 -0.00538715 0.00366388 0.00309828 0.00481185 0.00374556 -0.00165682 0.0016506 -0.0065908 0.00578194 -0.0044974 -0.00690093 -0.00756192 -0.00481832 0.00303847 0.00403168 0.00749859 0.00198604 -0.0014759 -0.00451426 0.00704238 
阻力 0.00350111 -8.89274e-05 -0.00684515 -0.00296058 -0.0077298 -0.00476217 -0.00862097 0.00742185 0.00993614 -0.00667638 -0.00932444 0.00453472 0.00922461 0.00621567 0.00865688 0.00445475 0.00434092 0.00767396 -0.0048511 0.00970383 -0.00919139 0.00026073 -0.000374381 -0.00292548 -0.00129062 0.00308581 0.00577148 0.00305858 0.00450028 0.00203399 0.00847708 0.00484634 -0.0046697 -0.000374133 0.00823202 0.00100953 0.00166522 0.00852737 -0.00613389 0.00710339 0.0088598 -0.00659366 0.00468962 -0.0051681 -0.00381718 -0.00937737 0.00597174 -0.00854641 0.000703336 -0.0095767 
平台 -0.0182866 -0.00115481 0.00172132 0.00264961 -0.00335914 -0.00415013 -0.0142126 0.00539246 -0.0080484 -0.010453 -0.00464278 0.014388 0.00431933 0.00249483 0.0163363 -0.00919647 -0.000907183 -0.00771344 0.0124522 0.0118966 -0.00309105 -0.00390835 -0.00761493 0.000807194 0.000918324 0.019784 0.00209815 0.00281219 -0.0069739 0.0137154 0.0102751 -0.00229283 -0.000265152 0.00224674 0.00151613 -0.00236607 0.00539946 0.00294778 -0.010858 0.00124362 0.00574325 -0.00673501 -0.00318572 0.00973057 -0.010039 0.0045364 0.00828534 -0.00976283 0.000603208 -0.0128296 
推广 -0.000867088 -0.0011251 -0.000226053 0.00167287 -0.0113372 0.00279707 -0.00498819 -0.000246033 0.00412423 0.00111431 0.00977656 0.00748596 -0.00860779 -0.00659954 0.00560526 0.00284424 -0.00822132 -4.1402e-05 -0.00360316 -0.00230438 -0.00319862 0.00690841 0.00812462 -0.000244647 0.00085847 0.00822497 -0.00746908 0.00394063 -0.00714803 -0.00478022 -0.00433661 0.0116165 -0.00926714 -0.0124373 0.0068692 -0.00783884 0.008764 -0.00117462 -0.00222358 0.0058843 -0.004412 0.00130887 -0.00319321 0.00485978 -0.00882226 0.00524797 0.00571695 0.00454798 -0.00363612 -0.0103352 
后来 -0.0121743 0.00792896 -0.00392134 -0.00355017 -0.00362082 -0.009196 -0.00554301 -0.00993541 -0.00138594 -0.00181173 0.00419671 0.0101335 0.00394352 -0.0018635 0.000997867 0.00513586 0.00559852 0.0092544 -0.00668852 -0.00320753 0.00778516 -0.00462453 -0.00119026 0.00881313 0.00596147 -0.00141279 -0.0053067 -0.00259047 -0.00263885 0.00010475 0.0103373 0.00823217 0.00144067 0.00365096 -0.00715866 -0.00488174 0.00984334 -0.0040756 0.00176504 -0.00953834 -0.00507017 0.0090773 0.00611491 -0.00343104 -0.00799288 -0.0049598 0.000487103 0.00654566 -0.0020932 -0.00634373 
意 0.00223422 -0.000469228 0.00658142 -0.0074252 0.00708761 -0.00692977 -0.00250727 0.00565964 0.00448004 -0.00441478 0.0015908 0.00818157 -0.0057595 -0.0088858 0.0077113 -0.00990824 0.0094493 0.00918479 0.00150506 0.00285397 0.00270024 0.00570619 0.000497756 0.00235626 0.00221373 -0.00786257 0.00500288 0.00336202 -0.00835064 0.00619283 -0.00256229 0.00480869 -0.00230967 -0.00282852 -0.0056128 -0.00432332 -0.000148569 0.00296353 0.003254 0.00440959 -0.00226551 -0.00582239 0.00325645 -0.000490954 0.0022672 -0.00686157 0.00689183 0.00145455 0.00265692 -0.0106522 
因为 -0.0201709 0.00163418 -0.000655729 0.00693323 0.0014474 -0.00794876 -0.00135551 -0.00335119 0.00623372 -0.00104656 -0.00923215 0.00258917 -0.00431127 -0.00122819 0.0149181 -0.00918781 0.000268448 0.00929819 0.007172 -0.000538879 0.000200076 0.00650787 -0.00225887 0.000972713 0.0176282 0.00860061 0.0114073 -0.00330883 0.000545339 0.0171455 0.0148694 0.00620054 -0.00953533 -0.00966473 0.00672796 0.00164701 0.0198423 -0.00956951 -0.0107657 0.00494352 0.0115986 -0.0111376 0.00335272 0.00420118 -0.00855306 0.000230325 0.00318808 -0.00468449 0.0111809 -0.0039634 
看 -0.0187445 1.65275e-05 0.00372795 0.00998616 -0.0017655 0.00263435 0.000303056 0.00560555 0.00871775 -0.0133045 0.0032955 0.00715225 -0.00318621 0.00547592 0.0171011 0.00554388 -0.00198423 0.0121374 0.00438747 -0.00325398 0.000458536 0.00474242 -0.00391108 -0.00908857 0.0203921 0.0138536 -0.0020058 -0.00625069 0.0130799 0.0220889 -0.00098042 0.0067341 -0.00955153 -0.0104898 0.00207081 0.00921549 0.00495155 -0.00637451 -0.00790301 0.004184 -0.00592976 0.00498068 0.00185965 0.00750077 -0.0120169 0.00226435 0.0051155 0.00166432 0.00843724 -0.00302568 
1 -0.0172662 -0.0097744 0.0119529 0.0101304 -0.0106387 0.00567681 -0.00875099 0.0080689 0.00193145 -0.0027564 0.00828213 0.00982789 0.00139238 0.00450362 0.00555921 0.00370617 -0.00165217 0.00804766 0.000208106 0.00381465 -0.00342635 0.00544184 -0.00251247 -0.0068477 0.0109483 0.006792 0.0124713 -0.00755411 0.00505103 0.0112652 -0.00652479 0.00232789 0.00253671 -0.0094138 0.00158614 0.00456053 0.0123316 -0.00127084 0.00525519 0.00441967 -0.00251701 0.00650808 0.00311624 0.00286837 -0.0122715 -0.00882609 -0.00753515 -0.00889389 -0.00628903 0.00141491 
凤求凰 -0.00973499 0.00975767 0.00137638 -0.00789498 0.00689858 -0.000126123 0.003988 -0.00931951 -0.00824213 -0.0081916 -0.00285009 -0.00682396 0.00489272 0.0087928 -0.00729798 0.00317557 -0.00614013 0.00738082 -0.00711303 0.00706529 0.000207978 0.00557331 0.0096297 0.00588475 -0.00412929 -0.00106742 0.00745468 -0.00820226 0.00575281 0.01079 -0.00186777 0.00662126 -0.00917717 0.00558471 -0.00657464 -0.00602507 0.00537628 -0.00961372 -0.00430403 -0.00476605 0.00542907 0.00435772 -0.00549003 -0.00101132 0.000951303 0.00593142 0.00405983 -0.00434094 0.00952755 0.00613106 
修建 -0.00757101 -0.00594843 -0.00335104 -0.00247474 0.00374455 0.00910807 -0.00849487 -0.00479797 0.00199045 -0.00156462 0.004852 0.00189371 -0.006831 -0.000505266 -0.00211463 -0.0038173 0.00257007 -0.000213356 0.00779728 -0.00405562 -0.00595207 0.00341416 -0.00671235 -0.00549577 0.00943703 0.00619495 -0.0084608 -0.0076477 -0.00152899 -0.00841001 -0.00023195 0.00884853 0.00956418 -0.00859904 -0.00415423 -0.010006 0.00238965 0.00739281 -0.00682106 -0.000349721 -0.00792215 0.00381947 -0.0092552 -0.00714951 -0.00541803 -0.00631873 0.00906173 0.000448393 -0.00124343 0.00570614 
征兆 -0.000292042 0.00889866 -0.000271609 0.000605078 -0.00579792 0.00741235 -0.00697725 -0.00257223 -0.00970161 0.00783413 -0.00333985 0.006386 0.00746288 -0.0046571 0.000589515 0.00123354 -0.00760606 0.0101284 0.00952092 0.00618226 0.00325028 0.0024658 -0.00289384 -0.00030659 -0.00673978 0.00262628 -0.00862621 0.0021471 -0.00648575 0.004292 -0.00415529 0.00177383 0.00228288 0.0015411 0.00934559 0.00565938 0.00266406 0.00275717 0.00665107 -0.00277683 -0.00414071 0.00575082 -0.00268269 0.00619992 0.00676241 0.00277835 0.00948645 0.0081237 -0.00540734 0.00618417 
此时 -0.000499674 0.00455881 -0.00701916 0.00958969 -0.00724405 0.00452267 0.00138965 -0.00595713 0.00789379 -0.0072332 -0.00495678 0.00602945 -0.000353744 -0.00423953 9.56519e-05 5.53317e-07 0.00401377 -0.00608909 0.00767571 -0.00445228 0.00570284 -0.00560282 0.00481191 0.00240044 0.00806732 0.0116942 0.00396402 -0.00609365 0.00151132 -0.000983299 0.0085479 -0.005031 0.00106143 -0.00187017 -0.00651788 -0.0065669 -0.00365569 0.00476373 0.00329671 -0.000292582 -0.00376486 -0.00774688 0.00100569 -0.00383571 0.000676428 0.00494117 -0.00510235 -0.00767851 0.00108569 0.000625393 
还有 -0.0171406 -0.00982588 0.000812207 -0.00887929 3.75625e-05 0.00845271 -0.01168 0.00647019 0.00163724 -0.00494414 0.00189441 0.00505004 -0.00563418 0.00691558 0.0214497 -0.00219578 -0.00500492 -0.00554765 0.0135566 -0.00625946 0.00740537 0.00999359 0.00629609 -0.00209897 0.000424413 0.0115472 0.00854911 -0.000571478 0.0116784 0.0187525 0.00324356 0.0117858 -0.0010497 -0.0124942 0.00102585 -0.00433984 0.00442354 -0.0105641 0.00277539 0.00657546 -0.00546688 0.00609656 0.00906871 0.0114334 -0.00457321 -0.003857 0.0020944 0.00562753 -0.00369001 -0.00849654 
出来 -0.00801953 0.00828555 -0.00687935 -0.00329993 0.00649613 0.000781245 -0.00280603 -0.00717324 -0.00595445 0.00431437 -0.0093246 -0.00532441 -0.00264124 -0.00712988 -0.00223952 -0.00201612 -0.000683693 -0.00768113 0.00273884 0.00357683 -0.000161613 8.59529e-05 -0.00246804 -0.00318449 0.00757414 -0.0022774 -0.00240644 -0.00704866 0.0101048 0.000837102 0.00995732 0.00233131 -0.0102136 -0.0102434 -0.0031585 -0.00124135 -0.0035905 -0.0065108 -0.00595799 -0.00138131 0.0096946 0.00265755 -0.0059449 0.00212091 -0.00895319 0.00449134 0.00486309 0.00784037 0.00625938 -0.00978511 
内八字 0.000957383 0.00681623 -0.000391231 0.00262113 -0.00220167 -0.00591209 0.00914092 0.00141411 -0.0090683 0.00514083 -0.00422488 0.00469114 -0.00834734 0.000802719 -0.00420593 -9.94347e-06 -0.00952199 0.00674118 -0.00797679 0.00479567 0.00577222 0.0020736 -0.00224539 0.00908322 -0.00315822 0.0013919 -0.00884836 0.00920372 -0.00735032 -0.00639392 0.00465944 0.00350881 -0.00105566 0.00909433 0.006112 -0.00815805 0.0042351 -0.00209907 -0.0100707 -0.00435794 -0.00684914 0.00709984 -0.00766287 0.00972534 0.00178823 0.00255629 -0.000375667 -0.00229178 -0.00869355 -0.00648499 
Object -0.001251 0.00646267 0.00994711 -0.00690403 0.00908416 0.00919852 -0.000517642 0.00589736 0.00522211 0.00330598 0.00897005 0.00955287 -0.00893866 -0.00139515 0.00208871 -0.00146802 0.00624913 -0.00599975 0.00492513 0.00450628 -0.00664908 -0.0023289 0.00159818 0.00233516 -0.000714604 0.00825842 0.00280904 0.00184797 -0.00662438 0.00520137 0.00586683 -0.00822724 0.000649873 -0.00579147 -0.00855725 0.00817467 -0.00455764 0.00187885 0.00851883 0.00649391 0.0092594 0.00952417 0.00472852 -0.00774585 0.000505197 0.00876503 0.00739758 0.00346936 0.00812005 0.00176259 
吞 0.00595107 -0.00681907 -0.00662434 0.00510183 0.00753497 0.00858715 -0.00512153 -0.00999609 0.00111521 0.00229598 0.0028413 0.00926359 0.00702887 -0.002742 0.00656679 -0.000348293 0.0037286 0.00284251 0.000772113 0.000377412 0.00852753 0.00311836 -0.00249173 -0.00638343 0.00849814 -0.00332697 0.00652552 -0.000398822 0.00547488 -0.000922125 0.00751126 0.00463275 -0.00515838 0.00144451 0.00594703 -0.00702708 0.00050537 -0.00624847 0.00755718 -0.00622487 0.00485875 0.000229161 0.00427865 -0.0064659 -0.0101617 0.00821426 0.00941129 -0.00398832 -0.00936348 0.0055867 
得到 0.00219163 -0.00121024 0.00471808 -0.000855286 -0.00633487 0.00773333 0.000675262 0.00615129 -0.00806398 -0.0109492 -0.00493106 0.0090434 0.00262227 0.0030279 0.0084276 -0.00994233 -0.00221184 -0.00651895 -3.30543e-05 0.0112453 0.000664474 0.0080701 0.00190078 0.00268064 -0.00521685 -0.00209709 0.00534535 -0.00108911 -0.00718216 0.00713547 -0.00147449 -0.00272704 -0.00802805 0.00507394 0.00878223 -0.00744352 0.0130865 -0.00660941 -0.00343502 -0.00559599 -0.00577464 -0.010076 0.00514992 -0.00851092 0.00158187 -0.000853978 0.00375519 -0.00404442 -0.00193326 0.00315152 
超人气 -0.00763939 0.00413918 0.00518953 0.00652243 -0.00958401 -0.002786 -0.00763976 -0.00121357 0.00420232 0.00364344 0.00669081 9.74969e-05 0.00193661 -0.000148918 0.00485749 -0.00778704 0.000280882 -0.00253546 -0.0094271 0.00332916 -0.00338083 0.00195077 -0.00867122 0.0085573 -0.00351157 -0.00853548 0.00518074 0.00654762 -0.00834672 0.00739497 0.00565821 -0.00768462 -0.00759484 -0.0083315 -0.00610196 -0.0081647 0.00188137 0.0077435 0.00930687 0.000663078 0.000489506 -0.0069353 -0.00803778 -0.00903608 0.00630087 -0.00550611 0.00438097 0.000442834 -0.00919426 0.00243293 
30 -0.00636496 0.00746263 -0.00226587 0.0094448 -0.00842515 0.00368668 -0.0107855 -0.000398343 0.00736118 -0.00755579 -0.00296882 -0.00219511 -0.0111951 0.00316891 0.00299216 0.0019942 -0.00689311 0.00199152 0.00955942 0.00240423 0.00540845 -0.00311976 -0.00151534 -0.00144918 0.00908619 -0.000980863 0.00197299 8.48599e-05 0.0117085 -0.00135497 0.0124765 0.00967344 0.0024074 0.001058 0.00284921 0.00366705 -0.00340415 -0.00116612 0.000236684 -0.00534157 0.011086 0.00163046 -0.00197938 0.0077014 0.00177918 0.00796148 0.00406871 -0.00833106 -0.00674757 -0.00224652 
无 -0.0163573 -0.00599039 0.00701777 0.00645169 -0.0111375 -0.00799655 0.00321463 -0.0101426 0.00667245 -0.00265249 0.00914082 0.00452285 -0.00827571 0.0071347 0.00457689 0.00673911 0.00168124 0.00220381 0.00500929 0.00357968 -0.00116758 0.00970957 -0.00542573 0.00475933 -0.00258695 0.00664184 0.00240544 -7.58133e-06 -0.000757359 0.0060566 0.00283702 0.000827839 0.00224499 -0.00394638 0.0016669 -0.00588873 0.000101655 0.000661127 0.00499938 -0.00425724 0.00813684 -0.00525237 0.00771974 0.00873017 -0.00175762 0.00257967 0.00984305 -0.00821439 -0.00522494 0.00496467 
起航 -0.00964522 -0.005383 0.00371176 -0.000818274 -0.00342167 0.00467237 0.00305224 0.00801765 -0.00692629 0.00154472 -0.00553704 -0.00548579 -0.00601086 0.000493175 -0.000789559 0.00986507 -0.00510061 -0.00816614 0.00239808 -0.000801287 0.00607867 0.00150315 0.00299639 -0.000556651 -0.00362739 0.0093235 0.00505197 -0.00709045 0.00390032 0.00231036 -0.00141929 0.00187351 -0.00138769 -0.00381126 0.0035116 0.0076413 0.0057598 -0.00190478 0.0033827 -0.00842495 0.00732911 -0.00696548 -0.00229534 0.00506458 -0.00340904 -0.00652389 0.00845785 0.00295888 0.00754699 0.00197121 
姿态 0.00201682 0.008851 0.0108138 0.00588308 -0.008016 -0.00180113 -0.00641843 0.00299096 0.00444135 -0.00407478 -0.00198778 -0.00642736 -0.0086111 0.00503508 0.00775023 -0.00294326 0.00928804 0.00634631 -0.00295012 0.00951338 -0.00453012 -0.00345867 0.00454699 0.00507476 -0.0072189 0.00625714 -0.00106933 -0.00801247 -0.00367316 0.011648 0.00330614 -0.00719835 0.00477997 0.00146612 -0.00403345 0.00663549 0.00930617 0.00376744 0.00629315 -0.00819659 -0.00685162 0.00904653 0.0088546 0.00300906 -0.00303345 0.0059007 -0.000510401 0.00328725 -0.0082281 -0.0093213 
女主角 -0.00579179 0.00368459 0.0105147 0.00397983 0.00598466 -0.00438248 -0.00977959 -0.00743039 0.00462063 0.00876079 -0.00371135 0.00916941 -0.00539252 -0.00909432 -0.00626958 0.00885443 -0.00494266 0.00996027 0.00935465 -0.00460949 0.00353121 0.00852613 -0.00700446 0.00200048 -0.00420497 0.00171147 0.00144188 -0.00636605 0.00121315 -0.00784216 0.00799127 0.0090651 0.00384423 0.00018467 0.00304625 0.00220893 0.00671986 -0.00407679 0.00546099 -0.00429493 0.00385779 -0.00417119 -0.00302649 -0.00437389 -0.00702717 0.00513467 0.0075082 0.0049785 0.00984299 -0.000389293 
走 -0.000445531 -0.00795904 0.00891883 -0.00258784 -0.00954528 -0.00662381 0.00275575 -0.00166489 0.00459345 0.00117588 0.000325534 0.00844047 0.00117969 -0.00284818 0.00979838 0.00769468 0.00258603 0.00807356 -0.00785373 0.00840295 -0.00491313 0.0024427 -0.00377102 0.00347425 0.0056351 0.0107138 0.0118271 0.00241933 -0.000408755 0.00285634 0.00970056 0.008385 0.0082395 -0.00879957 -0.00767103 0.00953532 -0.00543458 0.000575295 0.00315498 0.00191619 0.00391821 -0.00745761 0.00968168 0.00398075 -0.00890658 0.00754181 -0.00800248 -0.00575708 -0.00479245 0.00246023 
鬓 -0.00360181 0.00087271 0.000945892 0.00796041 -0.0103418 0.00704586 -0.0047504 -3.19499e-05 0.006258 -0.00703299 -0.00689944 0.00299422 0.00346591 -0.00847601 0.0111092 0.00214774 0.00590517 -0.00593796 -0.000616529 0.0089139 -0.00349458 0.00141148 0.000396345 0.00563913 0.000177202 0.00446624 0.00656345 0.00129736 -0.00820565 0.00853662 0.00479159 0.00559924 0.00801224 0.00357198 0.000974512 0.000695128 0.00148249 -0.00375548 0.00270757 0.0081946 0.00458606 0.00843453 0.0101226 -0.00688735 -0.00868086 -0.00876382 0.00319969 -0.000495852 -0.00336435 -0.00146294 
视为 -0.0030128 -0.00551194 0.00386821 -0.00457786 -0.00883438 -0.00632683 0.00623462 -0.00774034 -0.00558385 -0.000878127 -0.00792096 0.00658267 -0.00112627 0.00679578 0.00185693 0.00281091 -0.00508349 0.00651034 0.00862222 -0.00173135 0.00561725 0.00569115 0.00269101 -0.00975444 0.00941467 -0.00427541 -0.00845815 0.00304867 0.00345882 -0.00732654 -0.00757166 -0.000861453 -0.0101196 0.00876132 -0.00793311 0.00160255 -0.00459353 0.000796105 0.00433763 0.000564497 -0.00837416 -0.00225643 0.00298743 0.00722158 0.00127826 -0.00411228 0.0080346 -0.0107823 0.00807624 0.00303665 
姐妹俩 0.00339574 -0.0069309 -0.00876348 -0.00318391 -0.00375175 -0.00129906 0.00243804 0.00450994 -0.00140375 -0.00927324 0.0075492 -0.00264891 -0.00263157 0.00905324 0.0112463 -0.00254006 -0.00936056 0.00115507 -6.6288e-05 -0.00380361 -0.0070762 -0.0063368 0.00767051 -0.000499542 0.00398245 0.00157288 0.00676034 0.00924186 0.00909209 -0.00510888 0.0025811 0.00970631 0.00217519 -0.00104257 0.00124838 0.000120828 -0.00420168 0.00502668 -0.0095442 0.0063802 0.00764741 0.00198578 -0.00453592 -0.00440201 -0.00933081 0.00579813 -0.00916764 0.00690023 0.00926426 0.00573224 
股 -0.00588843 0.00225404 0.00251977 0.00936065 0.0051026 -0.00580562 -0.00775036 -0.00816575 0.00366902 -0.00324095 0.00218016 0.00388694 -0.0003858 -0.0050487 0.00660342 0.00791735 0.00159091 -0.00670227 -0.00577188 0.00538231 0.00244734 0.0033349 -0.00992614 -0.00945046 -0.00427381 0.00153727 0.00555929 -0.00688304 0.00348861 0.00692935 0.00996974 -0.00299894 0.00444917 0.00678872 -0.00524799 0.0016434 0.00375248 -0.00680584 0.000445011 0.00282951 -0.00642242 0.00657608 -0.00598439 -0.00636247 -0.00887206 0.00191677 -0.00785332 0.00158703 -0.00950725 -0.0082428 
盛传 0.00616813 -0.00432806 -9.62538e-05 -0.00143856 0.0060436 -0.0082171 -0.00499321 0.00234808 -0.00716123 0.00484333 -0.00907947 -0.00864271 -0.00117818 -0.00740433 0.0101484 0.00538616 -0.00185946 -4.26006e-05 0.00615409 -0.00878865 0.00180188 -0.00275749 0.00715076 -0.00467718 -0.00400798 -0.0044435 -0.00831746 -0.00581752 -0.00436107 -0.00572263 0.0055743 -0.00648741 -0.00274137 -0.0094715 0.000957797 0.00773873 0.000320202 0.00161548 -0.00525908 0.0102348 -0.00466216 0.00244936 -0.000719406 -0.00928204 0.0024454 -0.00472731 0.00508941 0.00808309 0.00261012 -0.00835304 
活 -0.0105153 -0.00250121 -0.00446588 0.00522024 -0.0101207 -0.00264752 -0.00284086 -0.000769951 0.000236354 -0.00614089 -0.00718328 -0.00447643 -0.00872867 -0.00193651 -0.00155029 0.00769027 0.00495847 0.00928308 0.00785892 -0.00642752 -0.00268259 0.0037491 -0.00556749 -0.0037487 0.0019146 0.0106163 -0.000510315 0.0065922 0.00726683 0.00803048 0.00285112 -0.00597132 -0.00257451 0.000639055 0.00910323 0.00746901 0.00927235 -0.00910331 -0.0046261 0.00522239 -0.00575215 -0.00807698 -0.00629541 -0.00207379 -0.00938544 -0.00938498 -0.00873789 0.00769609 0.00359593 0.00555984 
实在 0.00522017 -0.00518384 0.00117691 0.00162771 0.00584758 0.00743455 0.00797029 -0.00269337 -0.00475439 0.00213158 0.00895596 0.00542606 0.00712158 -0.00321843 0.00414772 0.00276294 -0.00891339 -0.00370132 0.00510955 0.00581596 -0.00855482 0.00457463 0.00427793 0.00673969 -0.000226506 0.00420088 0.00999455 -0.00545428 0.006567 0.000913428 -0.00866331 0.00616497 -0.00940689 -0.00550502 -0.00597125 0.00486907 -0.00870608 -0.00509964 0.0076784 -0.00840811 0.00421677 -0.000912043 0.0101478 -0.00308153 0.0080813 -0.00142221 -0.00233273 -0.00725329 0.00437101 -0.00392388 
闭 -0.00564058 0.00944519 0.00560714 0.00369531 -0.00259301 0.00911691 0.00168311 0.000936946 0.00928899 0.007693 -0.000594673 -0.00871409 -0.0062008 0.00986345 0.01161 -0.00020927 0.00731213 0.00150004 0.00602178 -0.00832289 0.00196258 -0.00897335 -0.00161786 0.00265512 0.00663807 -0.00718278 0.00857344 -0.0106017 0.00720928 -0.000269823 0.00739369 0.00387754 -0.00796198 0.00010982 0.00470901 0.000192139 -0.00797191 0.00255299 0.00335396 0.00896973 -0.00611738 -0.00641009 -0.0054717 0.00857811 -0.00367469 0.00927441 -0.00869575 0.00102522 -0.0035834 -0.00373778 
考核 0.00355435 0.00852068 0.00589916 0.0032531 0.00513395 0.00419011 -0.00124371 -0.001494 -0.00678209 -0.00672301 0.00179969 0.00179996 0.00791001 0.00265358 -0.00274068 0.000261826 -0.00877066 -0.00184914 0.00922534 -0.00874659 0.00379686 -0.00496103 0.00755997 -0.00956825 0.0049257 -0.00823805 0.0010284 0.00585768 -0.00751498 0.0100078 -0.00742911 -0.000248531 0.00675231 -0.00685966 -0.0086643 -0.00956428 0.0080238 -0.00496549 -0.00228375 -0.000909811 -0.0035248 0.00379748 0.00614233 -0.00587366 0.00470655 -0.00425891 -0.00314354 0.00456797 -0.00610367 -0.00394675 
告 0.00548795 0.00743785 0.00836027 0.00270841 -0.00261241 0.00968922 -0.0098331 0.00870908 -0.00935923 -0.00188613 -0.000530645 -0.00771336 -0.000220644 0.0056414 -0.00215077 0.00135769 0.00295716 -0.00422255 0.00588875 0.00334505 0.00522944 0.00930203 0.000859953 0.00884457 0.0036429 0.00320741 0.00892141 -0.00188352 0.00639491 0.00248787 -0.00178583 0.00417343 -0.00778546 0.000599768 -0.00339089 0.00411208 -0.00736657 -0.00660979 0.006482 0.00908609 0.00249878 -0.00115321 -0.00792044 0.0104469 -0.00800492 -0.00313299 0.00668408 -0.0102161 0.00339436 -0.00798726 
且 0.00648472 -0.00442977 -0.0063579 0.00208374 0.00677451 0.00704402 -0.00850447 0.00823253 0.0042565 -0.00254465 -0.00616427 -0.00897034 0.00699814 0.00882389 0.00239863 -0.000804246 0.00568083 0.0101976 0.00754551 0.00696274 -0.00882384 -0.0091928 0.00922459 -0.0084814 -0.00299052 -0.00714597 -0.00109336 0.00493496 -0.000849857 0.00780769 0.00466926 0.00959623 -0.00808156 -0.0053172 -0.000755476 0.00294136 -0.00712776 0.00134394 -0.00491077 0.00495404 0.00356714 -0.00576142 -0.00525886 0.00570421 -0.00108118 0.00244285 -0.00530087 -0.00869046 -0.0043932 0.00380809 
爸爸 -0.00322286 0.00387643 0.0102016 -0.00555786 0.00536802 -0.00573364 -0.00172719 -0.00889584 -0.00870878 0.00256605 -0.00592867 -0.0010518 -2.53742e-06 -0.00899914 0.00841109 -0.00271366 -0.00759745 -0.00226931 0.00140426 -0.00576381 -0.000978703 -0.00680162 -0.0060531 -0.00120924 0.00124401 -0.00724957 0.00893535 0.000655883 -0.00324461 0.00211316 -0.00508372 0.00139558 -0.00606992 0.00752449 0.01005 -0.000620689 0.00758669 0.00827755 -0.00553062 -0.00704394 0.00455112 0.00170356 -0.00405208 -0.000811646 0.00452643 0.00105418 -0.0073959 -0.000215499 -0.00530153 -0.0040078 
命运多舛 0.00595312 0.00100935 0.00611022 0.00990901 -0.00746504 -0.00324991 0.00221353 -0.00914104 -0.000592262 -0.010034 -0.00811585 0.0104976 -0.0092634 0.00327515 -0.00319177 -0.00430156 0.00743058 0.00184411 0.00370449 -0.00906008 -0.00938901 -0.00228948 0.00649665 -0.00164069 -0.00168286 0.00557915 -0.00821288 -0.00177605 -0.00695758 -0.00317158 -0.00311682 -0.00163003 0.00134534 0.00225086 0.00967706 2.03355e-05 0.00534153 1.65334e-05 -0.00203173 -0.00690885 0.00867916 0.0085257 -0.00657294 -0.000911001 0.00599389 0.00577785 0.00167046 -0.00107801 0.00474633 -0.009605 
暗码 0.00276756 0.00528618 0.002638 -0.00824082 -0.00470225 0.00184377 -0.00628707 -0.000422902 0.000932956 -0.00186549 0.00468813 0.00339715 0.00449826 -0.0035381 -0.00404014 0.00297831 -0.00412238 -0.00448794 -0.00471821 0.00563684 0.009406 -0.000127631 0.00917018 0.00457195 -0.0028176 -0.00251973 0.00493929 0.00257965 -0.00713239 -0.00367463 -0.00207993 0.00930155 0.00514128 0.00172466 0.00817372 0.00137773 0.0085005 -0.00912704 0.00337149 0.00400597 -0.00469973 0.00371711 0.000526214 -0.00228092 0.0058757 -0.00324183 0.00682767 -0.00454792 -0.00802261 0.00326329 
倾慕 -0.00856386 -0.00422794 0.00259606 -0.00143546 -7.90409e-05 -0.000593112 0.00365817 -0.00145942 0.00490348 0.00394436 -0.00182458 -0.00555542 0.00547579 0.000934971 0.00338753 -0.00252506 0.00500787 0.00410615 0.00554266 -0.00649524 -0.00702185 0.00495341 0.00860258 0.00406556 -0.00466859 0.0080865 -0.006995 -0.00882223 0.00876854 -0.00594707 0.00409901 -0.00786801 0.00026529 0.00647901 0.00922972 0.00880859 -8.98937e-05 -0.00271058 -0.0091999 0.00799648 -0.00895501 -0.00528933 0.0101829 0.00958648 -0.00037843 0.00778338 -0.00544683 0.00510356 -0.00391757 -0.00498573 
就像 -0.00971426 0.00833146 0.00652826 0.00357873 -0.000680868 0.000239801 0.00344 -0.00305756 -0.00879582 -0.0113823 0.00720772 0.000605494 -0.0100158 -0.00285831 0.0156189 -0.0048188 0.00723913 -0.00773603 0.00759307 -0.00544107 -0.00419375 -0.00576198 -0.00243975 0.00162333 0.0093713 0.0118126 0.0024823 -0.001722 -8.68303e-05 0.0131723 -0.00526204 -0.0015018 0.000738272 -0.00824304 0.00611257 0.0036893 0.0075187 0.00447065 -0.00891548 -0.00555482 0.00267735 0.0079941 -0.000938526 0.00961154 -0.00273946 -0.00323737 0.00752917 -0.0020337 -0.00455194 -0.00598995 
被 -0.0429567 1.26894e-05 0.0251273 0.000770672 -0.0184173 0.00448612 -0.0161285 0.00351987 0.00239996 -0.0189455 0.00110944 0.0271375 0.000816748 0.00747396 0.0262018 -0.00019058 0.00524915 -0.00246049 0.0027996 0.0103063 0.00687455 0.0105488 -0.00928232 -0.00735776 0.0355076 0.0289234 0.0113767 -0.0265972 0.00542643 0.030754 0.0155226 0.0104766 -0.00401623 -0.0174028 0.00823137 0.00612091 0.0149418 -0.00422459 -0.0161279 -0.00197778 0.00510217 -0.00253269 0.00861991 0.0136251 -0.0276845 0.00574879 0.00998031 -0.0179612 0.0166961 -0.0189432 
动物园 -0.016621 0.00749387 0.0107129 0.00618497 0.00641024 -0.00233001 -0.0108227 0.00576152 7.90421e-05 0.00528153 0.00866023 0.00823062 -0.00443679 0.0108013 0.0170715 0.00442151 -0.0100382 0.00439589 -0.00207691 -0.00486033 -0.00540768 0.0082892 0.00455409 -0.00838086 0.00898512 0.00191167 0.0129327 0.00473002 -0.00184255 0.0129141 0.00138842 -6.82802e-05 0.00322181 -0.00414771 0.000230687 -0.00673483 0.0116138 0.00232245 -0.00550212 -0.00306796 -0.00752702 -0.00101032 0.0112153 0.00320098 -0.00208887 -0.00615855 0.00830727 0.00240765 -0.00168925 -0.00339757 
东北 -0.00969583 0.00563398 -0.00357868 0.0081968 0.000491437 -0.000672788 0.00629021 -0.00124115 -0.00878373 0.00118554 -0.00229272 0.00889743 -0.00583157 0.0050954 0.00588854 0.00659411 0.00459857 -0.0084711 1.99626e-07 0.00324309 0.00616729 0.0070231 0.00856084 0.000967811 -0.00407971 -0.001798 0.00982198 -0.00283455 -0.0052466 0.00157867 -0.000668678 0.000943491 -0.00915634 -0.00845334 -0.000793746 -0.00509261 0.00693019 -0.00241143 0.00518095 -0.00483739 -0.00167016 -0.00513815 -0.00424247 -0.00390865 -0.00450832 0.00228488 -0.00554776 -0.00720992 -0.00738562 -0.00235374 
文 -0.0237162 -0.0106548 0.0151407 0.00263343 0.0044525 0.00920825 -0.01068 0.00383614 -0.00543612 -0.0147391 0.00954297 0.00361175 0.0021823 -0.00401335 0.0193964 0.00339405 -0.00372955 -0.0063622 -0.000194691 0.00890508 -0.00033204 0.00622281 -0.00805326 -0.00865891 0.00860585 0.0158522 0.0164583 -0.0116547 0.00926778 0.0147303 0.00709209 0.00264849 0.00398788 -0.00176434 0.000132219 -0.00481626 0.0106857 -0.00197006 -0.0120953 -0.00595952 -0.005179 -0.00987998 0.0123878 0.00675856 -0.0164527 -0.00414302 0.00566763 -0.00510372 0.00820473 -0.000351225 
作者 -0.049036 -0.0135174 0.0121561 -0.0024692 -0.013672 -0.00734418 -0.020066 0.00144041 0.00532974 -0.0320302 -0.00621928 0.0290395 -0.0121556 0.0180998 0.0326107 0.00348647 -0.00346003 0.00684065 0.00541956 0.01822 0.00499453 0.000515617 0.00702893 -0.0148525 0.033425 0.0325871 0.0205128 -0.0287698 0.0183843 0.0269784 0.0107207 0.0108697 -0.00586629 -0.0210344 0.00474219 0.00143832 0.0157946 -0.00884319 -0.0183478 0.0132514 0.00757125 -0.0135306 0.014094 0.00728192 -0.0227998 0.003677 0.014348 -0.0174798 0.0121697 -0.00583477 
深奥 0.00298281 0.0020897 -0.00541739 -0.0033797 0.00583035 -0.000835552 -0.00962912 -0.00975115 -0.0061083 0.00250761 0.00585058 -0.00399435 -0.00699698 -0.00916743 -0.0059421 -0.00186619 0.00187038 0.0103981 0.00608265 0.00992697 0.00434999 0.0101607 0.00567789 0.00335595 0.00425189 0.00911791 -0.00366305 0.00838266 -0.0019226 0.00603144 0.00481964 -0.00504912 0.00945471 0.0056151 0.00453513 -0.00280049 -0.000431482 0.000172969 -0.00765134 -0.00481637 -0.00303635 -0.000215796 0.00247212 -0.00195635 -0.00765737 -0.00107641 -0.00233442 0.00111465 -0.00240148 -0.00639908 
如今 -0.00518502 -0.000288286 0.00790784 -0.000923285 -0.00225233 -0.00944785 -0.00433072 -0.00688617 -0.00170985 -0.00942898 -0.00431413 0.00389736 -0.00644261 -0.00851693 0.00198107 -0.00952566 0.00206836 -0.00223813 0.00857059 -0.00740812 0.00838019 -0.0085397 -0.00518079 0.0031788 0.0117678 0.011347 -0.000477453 0.00582014 0.0092712 -0.00635602 0.0017337 -0.00532698 0.000133694 -0.0103322 0.00598876 0.00430066 0.00390759 -0.00788114 -0.00122644 0.00783993 0.00635315 -0.00809551 0.0110395 -0.000814735 -0.011041 -0.00234455 0.00903922 -0.00194235 -0.00348866 -0.0116377 
角度 0.00554785 -0.00225063 0.00982572 -0.00638806 -0.00512011 -0.00863017 0.00503797 8.73733e-05 -0.00433529 0.00372016 0.00297946 0.000250162 0.00231318 0.00884679 -0.00855897 0.00716318 -0.00278167 0.00978057 -0.000134575 -0.00516294 0.00402471 0.00745404 0.00248671 0.0055925 -0.00184587 0.00376607 0.00883852 -0.00867448 -0.00472327 -0.00512804 0.0101197 0.00075037 0.00529 0.00890884 0.00468516 0.00897728 0.00801384 -0.000242033 -0.00662059 -0.00565177 0.0073171 -0.0056172 -0.0042062 0.00118795 0.00781994 0.0079595 -0.00635261 -0.0077566 -0.0058968 0.00193766 
君 -0.00296444 -0.000841109 -0.00273224 0.000793055 0.00842029 0.00952922 -0.0050672 0.00481202 -0.00186678 -0.00397899 0.00388878 0.00152953 -0.00602072 -0.00335113 -0.00371269 0.00431689 -0.00104603 -0.00102112 -0.00509277 -0.00356721 -0.000632767 -0.00139176 -0.00672081 0.00622248 0.00617051 -0.00343347 -0.00718073 0.00582412 0.00599419 0.00423467 0.000686051 0.00332714 0.00349268 0.00254288 -0.0067443 0.00118823 0.0105704 -0.00145336 -0.00356487 -0.00739487 0.0105775 -2.31268e-05 -0.00109003 0.0015313 -0.00811772 0.00467282 -0.00452337 0.000270966 0.00728206 -0.00303957 
花园里 -0.0129095 -0.00776817 0.00768133 -0.0045459 -0.001037 0.00179036 -0.00797519 0.00143982 -0.00966628 -0.00697092 0.00131921 0.00904005 -0.00170365 -0.00153053 -9.50239e-05 0.00949737 -0.00673322 4.65629e-05 -0.00644965 0.000883341 -0.00366847 0.00796185 -0.007674 -0.00296788 0.00246762 0.00753125 -0.000351281 -0.00271818 -0.00730162 -0.00560846 -0.00200857 0.010616 -0.00531951 -0.000698215 -0.00503379 0.00805961 -0.00309557 0.00577703 -0.0084841 -0.00677298 0.010013 0.00403142 0.00883491 0.00140255 0.00639871 -0.00716063 -0.00887625 -0.000816425 0.00742247 -0.0103531 
青龙 -0.000654757 -0.0101227 0.000568211 0.00456541 -0.00767228 0.00733262 -0.00228792 0.00290465 0.00774048 -0.0105171 0.000743214 -0.00309408 0.00529135 -0.00833475 -0.0047887 0.00675195 -0.00854555 -0.00898592 -0.00104439 -0.00683604 0.00498839 0.0093261 -0.000616433 -0.00893414 0.000246598 -0.00652643 0.00354649 -0.00626341 -0.00823927 -0.00488604 0.00421908 0.000268201 -0.00260049 -0.0103119 0.0060017 0.00941919 0.00805208 0.00572752 0.00500645 0.00373585 0.00496237 0.000679298 0.001261 0.00745618 0.00801201 0.00555497 0.00433451 -0.00487582 0.00764394 -0.00506446 
段 -0.0193693 0.00407054 0.00446601 -0.00967843 -0.002917 0.00457748 -0.0133378 -0.00511088 -0.00461403 -0.00306876 -0.00756994 0.0098859 0.00209452 -0.00154853 0.00550273 -0.00343426 0.00284909 -0.00799299 0.00304987 0.0052859 -0.00196865 0.00585198 -0.00373033 0.00497109 0.0144392 0.00876347 -0.00240883 -0.00317108 0.00921638 0.0192689 0.00851876 0.0134609 0.00801188 -0.001542 0.00588779 -0.0057075 0.00962175 0.00530442 8.73343e-05 0.0069126 -0.00488323 -0.0121371 -0.00350508 -0.00555971 -0.000611915 -0.00718449 -0.0074205 -0.00670289 0.0082466 -0.00873347 
考虑 0.00607118 -0.00242944 -0.00735335 -0.00419639 0.00546738 -0.00895618 -0.000180443 -0.0025022 0.00285558 -0.000396255 -0.00156883 0.00459343 0.00567777 -0.00813963 -0.00157338 0.00998227 -0.0016334 -0.00343657 -0.00713894 -0.0070212 0.00885124 0.00860371 -0.00541518 0.00329085 0.00966353 0.00448076 0.00171513 -0.0105682 -0.00499005 -0.00605893 -0.00208533 0.00775758 -0.00670071 -0.00836841 -0.00504443 -0.00590782 -0.00344931 0.00357521 -0.00825478 -0.00694402 0.00556623 -0.00317089 0.0054797 -0.00604373 -0.00843996 -0.00918486 -0.00689163 0.00518789 0.00431712 -0.00816091 
兴 -0.00995721 -0.00856783 0.00153142 -2.40126e-05 -0.00585331 -0.00881426 0.00407986 -0.00699418 -0.00995586 -0.0027167 0.00990306 -0.00703113 0.00521563 0.00554779 0.0100571 -0.00680197 0.00960036 -0.00552304 0.00269656 -0.00134747 0.00733648 -0.00505725 0.00285506 -0.00274433 0.00707203 -0.00255377 0.00499306 -0.00372321 -0.00512516 -0.00627414 0.000911175 -0.00350724 0.00641297 0.00270408 0.00847875 0.00835681 0.000206175 6.84243e-05 0.00888102 0.00239468 -0.00832168 -0.00865916 -0.00886421 -0.00324013 0.00032714 0.00911217 -0.00936577 -0.00263221 -0.00830565 0.00603825 
遑论 0.0015288 0.00566221 -0.00762567 -0.00325458 0.000245422 0.00915852 0.0069242 -0.000861781 0.00147748 -0.00342822 -0.00611908 0.00148837 6.88693e-05 0.0044858 0.00923012 -0.00760091 0.00936587 -0.00658261 -0.00122136 -0.00438603 0.00459164 -0.00176214 0.00856145 -0.00208378 0.000433697 0.0028127 0.00862167 -0.00699481 0.00417381 -0.0067141 -0.00484602 -0.00872001 -0.00842206 -0.00349676 -0.00230322 -0.00200592 0.00689848 0.00625413 0.00288589 0.00456096 0.00536684 -0.00239365 -0.00433007 0.00501264 0.00679058 0.00717483 0.0070408 0.00759105 0.00514612 0.0049804 
这一年 -0.00369264 0.00100481 0.00739133 0.00999638 0.00360042 -0.00568469 -0.00752173 -0.00321762 -0.00477846 0.00306484 0.00206974 -0.00470076 0.00326097 -0.00126317 0.00835708 -0.00683341 -0.00338671 0.00188958 0.00224505 -0.00609968 0.0094987 0.00653923 -0.00962464 -0.00372199 0.000206141 0.00227729 -0.00702755 0.000677462 0.00339003 0.00446511 -0.00480356 0.0101074 -0.00206329 0.0024852 -0.00243136 -0.00656497 -0.00489018 0.00957742 -0.00453628 -0.00698571 0.00474551 0.0081699 -0.00617001 0.00641293 0.00455911 0.00289851 -0.000202258 -0.00745559 -0.00875244 -0.0100791 
两年后 0.00732468 0.00302278 0.00138118 0.00193927 0.00882286 -0.000166898 0.00365941 0.000431626 -0.00241595 0.000830648 -0.00625888 0.00420597 -0.00547525 -4.01307e-05 0.00159697 -0.00236544 -0.00869678 0.000638426 -0.00200988 -0.00456739 -0.00587673 -0.00411892 0.00497125 0.00175982 -0.00694579 0.0110425 0.00269748 -0.00248312 -0.00892029 -0.00690491 0.00613091 -0.00359706 0.00763245 -0.000155416 0.00110483 -0.00256703 0.0103957 -0.00798963 -0.00438759 0.00101855 -0.00845183 0.00845825 0.00956008 -0.00901028 0.00192805 0.00112244 0.00671511 -0.000881844 0.0023014 -0.00738161 
两种 0.00807826 0.00971863 -0.00787579 0.00565528 0.00371056 -0.00917883 -0.00551255 0.00740847 -0.00640789 -0.00823907 0.00402872 0.000175293 -0.00480758 -0.00620483 0.000917269 -0.00863183 -0.00843773 0.00619377 -0.00524574 0.00252183 0.00910344 -0.00303538 0.001951 0.00553156 -0.00798116 -0.00594169 -0.00787045 -0.00553437 -0.00732122 0.0104127 -0.00480637 0.00342839 -0.00831747 -0.00416988 -0.00359453 -0.00888209 -0.00799362 -0.0101068 0.00280182 0.00101761 0.00407673 -0.00224106 -0.00493323 0.00692545 0.000714006 0.00275109 -0.00178173 0.000563657 0.00629216 0.00024611 
登门 -0.000670552 0.0032188 0.0108943 -0.000184421 0.00428757 -0.00936594 -0.00963553 -0.00962593 -0.000662059 0.0053016 -0.00454591 0.00569954 0.00493873 0.00310869 0.00203502 -0.0066916 0.00971874 0.00258587 -0.00689967 -0.00493085 0.00319406 0.00908189 0.00268853 -0.00718535 0.00969021 0.00416334 -0.00682756 -0.0020528 -0.000849924 -4.60462e-05 0.00372533 -0.00538913 -0.00112177 -0.00077771 0.00363797 0.00571886 0.0104442 -0.00301477 0.000830294 0.00518712 -0.00943106 -0.00345132 0.00034885 -0.00123541 -0.0103208 0.0093517 -0.00262132 0.00454411 0.0069859 0.00663693 
永远 -0.00978859 -0.00322854 0.00044522 -0.00137568 -0.000961009 -0.00429919 0.00836758 -0.00221122 -0.00976707 -0.00271671 -0.00211364 -0.0013687 -0.00620498 -0.00647825 -0.00460013 -0.00879448 -0.00101011 0.00994774 -0.00221383 0.00830467 0.000232958 -2.56434e-05 -0.0089881 -0.00518427 0.00357014 -0.000283799 0.00488992 -0.00721526 0.00537019 -0.00614224 0.0103041 0.00891829 0.0041787 0.00737774 -0.00947429 0.00322582 0.00573303 0.00169788 -0.00121313 0.00725792 0.00387283 0.00338918 0.00204361 0.0101429 0.00781562 0.00377543 0.00391739 -0.00563488 0.00826568 -0.000374965 
微 -0.011256 -0.00622591 0.00122853 -0.000665794 -0.000819221 0.00227396 -0.00126978 -0.00914 0.00663098 0.00133503 0.00380894 0.00433663 -0.00443074 0.0118946 0.0159943 0.0055281 -0.00514581 0.00121206 0.0119575 -0.00649093 0.000300971 -0.00346354 -0.00782349 -0.00201612 0.0146122 0.00331487 0.00764503 0.00245366 0.000535685 0.00348316 0.00142744 -0.00694329 0.00808576 -0.0106321 -0.00804832 -0.00260736 -0.00240517 0.00742653 -0.00211053 0.000230483 -0.00486168 0.00197733 0.00197674 0.00654162 -0.000213903 -0.00448658 0.00785176 -0.011615 -0.00228467 -0.00105864 
周围 -0.0129703 -0.00382354 -0.0059182 -0.00127148 0.00858313 -0.00841487 0.00194977 0.000698628 0.00274755 -0.00289983 -0.00410468 0.00617639 -0.00612533 0.00828076 0.000690972 -0.00544777 0.00384787 -0.00882428 0.00224828 0.00194104 0.00225794 0.00466924 4.65527e-05 -0.00245039 -0.0048807 0.00489541 0.000142227 -0.0113141 0.00922572 0.00949632 0.00136732 0.00732684 -0.00404637 -0.00204132 0.0009526 -0.0039825 0.00652398 0.00870354 0.001623 -0.000960296 0.00927251 -0.00195722 0.0096488 -0.00888376 0.00692761 0.00276672 0.00293703 -0.0103182 -0.00127013 -0.00723539 
按 -0.00493243 -0.00951907 -0.00731101 0.0014019 0.00499138 -0.00734966 -0.00298812 0.00457446 -0.00645382 -0.00311248 -0.00901176 -0.0090691 -0.00848186 -0.00229602 -0.00420339 0.0100269 0.00728861 -0.000307418 0.000691823 0.0046323 -0.00249018 -0.00568782 -0.000712698 -0.00540622 0.00763381 -0.000225506 0.00915229 0.00348537 -0.00674938 0.000192478 0.00465968 0.00224851 0.00809132 -0.00683923 0.00644575 0.00714306 0.0070464 0.00605032 0.0058556 -0.000402012 0.000240457 0.00943044 0.00231241 0.00464023 -0.00869766 0.00798838 0.00702278 0.00207998 -0.00427274 -0.0020943 
阿婆 -0.0110556 -0.0098455 -0.00227265 -0.00587254 -0.00805971 0.00301105 0.00777817 -0.00654513 -0.00851192 -7.2958e-05 -0.00624423 -0.0026648 -0.0033041 0.00317441 -0.00455956 -0.00372279 0.00354102 -0.00378185 -0.00374442 0.00713124 0.00171219 -0.00674705 0.00205085 -0.00646967 0.00156482 0.0104802 -0.00560972 -0.00710018 0.00625675 0.00809049 -0.00442703 -0.00197086 0.0080134 0.0013076 -1.95819e-05 -0.00371071 -0.00698079 0.00907714 -0.00287302 -0.00133714 0.00176948 -0.00595237 -0.00754419 -0.00803666 0.00251707 -0.00974465 0.00307901 -0.0107387 0.00146411 0.00233448 
不断 0.00325814 0.00665457 -0.0023368 -0.00392447 0.000123699 -0.00894843 -0.00837383 0.00892243 0.00913069 0.00279358 0.00456353 -0.00212076 0.00962755 0.00648997 0.00451623 0.00108414 0.00802433 -0.0055443 0.00969549 0.00769788 -0.00569795 -0.00674247 -0.00581231 0.00895002 -9.67035e-05 0.00605497 0.00937049 -0.00417792 0.000595176 -0.0080838 0.00842323 0.00209868 0.00147634 0.00682184 -0.00742081 0.00333839 0.00127847 -0.00597427 -0.00211641 0.00741255 0.00230294 0.00291243 -0.00245264 -0.00707102 -0.00907536 0.00144941 -0.00481302 -0.00235257 0.00400646 -0.00354955 
手机 0.00144434 -0.00768167 0.0114273 -0.004597 0.00266549 -0.00724638 0.00158038 0.00255158 -0.00313189 -0.00522662 0.000107532 -0.00208771 -0.00462945 0.0024377 0.00434955 -0.00595389 -0.00594823 0.00220884 0.00512549 0.00264108 0.00105465 -0.00855074 0.00945641 -0.00159826 0.00776794 0.0125678 -0.00283611 -0.00177962 0.0056995 0.0155019 -0.00622368 -0.00119263 0.00273608 -0.00514463 -0.000510217 0.000652092 0.00499124 0.00354534 -0.0134766 0.00936683 0.0104808 0.00175292 0.00853882 0.0031546 -0.00926723 -0.00909572 -0.0034646 0.00518363 0.000992121 -0.00992995 
写 -0.0161379 -0.000143799 0.00215355 -0.00649631 -0.00944593 0.00948243 0.000320855 0.00531771 0.00614718 -0.00920432 0.00616654 0.0144055 -0.00172222 -0.00202837 0.0188737 -0.00753803 0.00699776 0.00976157 0.00360342 0.00183036 0.00264906 0.00827244 -0.00636107 0.00396803 0.0169181 0.0146987 -0.00383674 -0.00763085 -0.000906459 0.00269713 -0.00325563 0.010848 0.00177967 0.00269477 0.00213178 -0.0058703 0.00130714 0.00563943 -0.0146058 0.0114149 0.00371654 -0.0105925 -0.00450765 0.0106722 0.00115903 4.48218e-05 0.00508945 -0.000780937 0.00689718 -0.00893386 
本身 -0.00942656 0.00484693 -0.00459654 0.00632322 0.00816517 0.00900687 0.00210074 0.00991463 -0.00975015 -0.00536536 -0.00513711 -0.00690001 0.00521845 -0.00482137 -0.00681157 -0.00309525 -0.00741304 -0.0015644 -0.00831636 -0.00610927 -0.00440279 0.00946688 0.00331053 -0.00816846 0.00982794 -0.00541603 0.00929609 0.00761405 -4.77736e-05 -0.000198668 -0.000345535 0.00872782 0.00213937 -0.00369882 -0.0062084 -0.0038527 -0.00508248 0.00766642 -0.00308622 -0.00129256 -0.00855784 0.00727582 0.00140097 0.000330273 -0.00196032 -0.000352244 0.0073092 0.00900833 -0.00896035 0.0091373 
如果 -0.0225389 0.00383496 0.00943553 0.00334905 -0.000894961 -0.00714043 -0.00584309 0.00635761 0.00507645 -0.0050993 0.00759754 0.00954767 -0.000713581 0.00267581 0.0240599 -0.0027829 -0.00544527 0.0088751 0.00553909 0.0111646 0.00230512 -0.00457989 0.00809514 -0.00835157 0.0193101 0.0130237 0.00313795 -0.00594412 0.00296042 0.0157182 0.00565456 0.00475491 -0.000819584 -0.012424 0.00340798 -0.00600228 0.00887834 0.000419739 -0.0166216 0.0111155 0.0137879 0.00440844 0.00130244 0.00537159 -0.00125446 0.00805431 0.00403985 0.00064834 0.0121196 -0.0167231 
即便 0.00199021 -0.00194771 -0.000894833 0.00617063 -0.0029593 -0.000764925 0.00762216 -0.0081958 0.00379768 -0.000289934 0.00955245 -0.00552835 0.00194807 0.00902095 0.00713797 -0.00845531 0.00500495 -0.000725211 -0.00165469 -0.00660371 -0.00472406 0.0093582 0.00383671 -0.00240391 0.0108686 0.00957494 0.00590788 -0.00785675 -0.00172122 0.0084087 0.00852788 -0.00728405 -0.00805197 -0.00784344 0.00931879 -0.00314868 0.007147 -0.00576791 -0.00896045 -0.00677386 0.00312222 -0.00339214 0.00638833 -0.00260226 -0.00968725 0.00918082 -0.00897554 0.00567374 -0.0080374 -0.0078326 
宋罗汤 0.00704631 -0.00270411 -0.00169412 -0.00752634 0.000756347 0.00812096 -0.0100772 -0.000767435 -0.00704268 0.00293656 0.00303211 3.19662e-07 0.0042365 0.00748413 0.00767258 0.00202452 -0.00321791 0.00307187 0.00801737 -0.00712179 0.00654008 0.00233161 0.00613685 -0.00925682 0.00236149 -0.00761911 0.00506834 0.00242601 -0.00335306 0.00877337 -0.00553005 0.00685125 0.00818645 -0.00394752 -0.00760349 0.00800368 0.011094 -0.00179525 -0.0101231 -0.00358545 -0.00591752 -0.0092418 0.00527834 -0.00475089 0.00385382 -0.00899101 -0.00166126 -0.00859273 0.00581973 -0.00331115 
至今 -0.00271761 5.93302e-06 0.0105623 0.000628056 -0.00489417 0.00605743 0.00134019 0.00874644 -0.00287302 -0.00194111 0.0056932 0.00203225 -0.00458955 -0.00515938 0.00271713 0.000529445 0.00876103 -0.00358834 0.0105249 -0.00479908 -0.00153874 -0.00619553 0.00879977 0.0053993 0.00845831 0.00612117 0.0114428 0.00786246 0.00861599 -0.00325209 0.00992598 -0.0035159 -0.00137495 -0.00705464 -0.00604976 0.00677503 0.0026412 0.00853463 -6.19742e-05 -0.00774465 0.00376925 -0.00133689 0.0114258 -0.0083002 -0.00175056 -0.00999341 -0.00473825 -0.00719939 0.00984848 -0.00401644 
反胃 -0.00738487 -0.00543377 0.0094154 0.00924862 0.00600877 -0.00560347 0.00199629 0.00713658 -0.00506943 0.000673031 0.00474847 -0.00613865 0.00616108 -0.00415712 -0.00663642 0.00355075 0.00177139 -0.00748412 0.00325409 -0.00747912 0.00439982 0.00348808 -0.0046329 0.00359035 0.00614083 -0.00460477 -0.00146396 0.0064701 0.00380787 0.00216701 0.000388425 -0.00155295 -0.00441131 -0.00784911 0.0037177 -0.00450522 -0.00282659 0.00364497 -0.00165119 0.00565743 -0.00867572 -0.00654784 0.00715811 -0.000413946 0.00575593 -0.00624497 0.00429759 0.00393752 0.00231279 0.00127311 
既然 0.00764267 -0.00188425 -0.00870472 0.0075707 -0.00863739 0.00832717 -0.00838743 0.00414692 0.00520152 0.00633708 0.00778494 -7.32607e-05 0.00510588 -0.00510388 0.00534237 0.00531336 0.0042429 -0.00260199 0.010124 0.00923809 -0.00927259 -0.00908397 -0.00736722 0.00189972 0.0100049 -0.00772686 0.000939266 0.00475763 -0.00719199 0.00471582 -0.00315865 0.00812597 0.000958172 -0.00697987 -0.00232895 0.00108508 0.0111521 -0.000970335 0.00600312 -0.00104585 -0.00188736 -0.00963963 0.00717867 -0.00326182 0.0050115 0.00765222 -0.00188262 0.00513975 -0.00738863 0.000300784 
喜欢 -0.020214 0.00329954 0.0016121 -0.00805279 -0.00272869 0.00215353 -0.00525619 -0.00216408 0.00164317 -0.00199199 -0.00921476 0.00865352 -0.00312994 0.00713526 0.0139506 -0.00818813 0.00463747 0.00475798 0.0160707 0.00729882 0.0080629 0.00592344 0.00611852 0.00288784 0.0168878 0.0137577 -0.000339147 -0.0139681 -0.00606551 0.00609629 0.00256996 0.0160197 -0.0100247 -0.0188904 0.00645529 0.00919618 0.00972672 -0.00508728 -0.000599994 0.00417378 -0.000800464 0.00271763 0.00693797 0.0096428 -0.016077 0.0087947 0.00681621 -0.0159041 0.00193833 0.0031166 
从头 1.87919e-05 0.0036593 0.00898317 0.0083097 -0.00620558 0.00967489 0.00157275 -0.00158685 -0.000743983 0.00407796 -0.000466273 -0.00542425 0.00234156 -0.00602048 0.00489284 -0.00497917 0.00141048 -0.00140555 -0.00738331 0.00363522 -0.00156153 0.00552525 0.00567677 0.00415445 0.00360311 -0.000132719 -0.00115195 -0.00640644 0.00334774 0.00733646 0.0078342 -0.00795687 0.00632438 -0.00313167 -0.00543675 -0.00987324 0.00838722 -0.00740677 -0.00681912 0.00529401 0.00762916 0.00740396 0.00136937 -0.00193224 -0.01084 -0.00377413 -0.0048112 -0.0014544 0.00371587 0.00542466 
少 -0.0040252 -0.00603123 0.0113651 0.00906102 0.00263672 0.00927719 0.00406431 0.00676897 -0.000611931 -0.00730564 0.00608787 0.00539848 -0.00654888 0.00838889 -0.00602425 0.00466653 -0.00284924 0.00814462 0.0102486 0.0038834 0.00333863 0.00833501 -0.000614121 0.00206828 -0.00717248 0.00290017 0.0106415 -0.00455947 -0.00816361 0.00378544 0.0021161 0.00288249 0.00679139 0.00219593 -2.50377e-05 -0.00684666 0.00657715 0.00551009 0.00131151 -0.00419952 0.0103506 0.000640761 -0.00704566 -0.00833273 0.00537438 -0.00410086 -0.00770077 0.00108753 -0.0025871 0.00862451 
" -0.0547286 -0.000898044 0.0288638 0.0051195 -0.0161323 0.00522084 -0.0322365 -0.00584738 -0.0112882 -0.0275949 -0.00132061 0.0354573 -0.00326739 0.0234884 0.0574037 0.000484865 -0.00734264 0.0169511 0.0135093 0.0243811 0.00404167 0.00263836 -0.0021877 -0.0106762 0.0383453 0.0574456 0.0281809 -0.0176751 0.00751786 0.0367062 0.0214596 0.0182176 0.00382482 -0.0261624 0.00150662 -0.00528047 0.0250985 -0.00992343 -0.0171349 0.0095121 0.00893468 -0.00874817 0.020974 0.0103503 -0.021998 -0.000646002 0.018587 -0.0259758 0.0214871 -0.0251729 
存档 -0.00532113 -0.00892752 -0.00784873 0.0079735 -0.00770242 -0.00532519 -0.00473043 0.00136562 0.00234723 -0.00483161 0.00213823 0.000877218 -0.00587355 0.00432824 -0.00871591 0.00636232 -0.00348686 -0.00769409 -0.00165621 -0.00111391 0.00553652 -0.00386761 -0.00413164 -0.0071784 -0.00325397 -0.00953619 0.00212494 0.0043827 0.00231131 -0.00351793 -0.00346133 -0.00590389 -0.00344331 0.00959465 0.00415742 -0.00204193 -0.000469607 -0.00741991 0.00302029 0.0080134 0.000144714 0.000582192 0.00197592 0.00474113 0.00690405 -0.00334768 0.00594046 0.00114873 -0.000141762 -0.0101493 
对着 0.00218644 0.00355263 -0.0030681 -0.00795696 -0.00600146 -0.00214474 -0.00319074 0.000383352 -0.00563071 0.00821833 0.00621247 0.0086414 0.00203452 0.0103952 0.00926001 0.00267955 -0.00222217 -0.00736525 0.000199364 0.00453535 0.00370897 -0.00428527 -0.0052498 0.00737272 -0.00784938 -0.00735835 0.00592783 0.00881549 -0.00831986 -0.0064548 0.00620767 -0.00078075 -0.00826907 0.00526978 0.00906722 -0.000958135 -0.00457891 -0.00244751 0.00273883 0.00573175 -0.000652787 0.00955856 -0.00843368 0.00360822 -0.00989423 0.0045135 -0.00743316 -0.00514617 -0.0090013 0.00199742 
含义 0.000275555 -0.00959113 0.00440516 0.000403382 0.00071932 0.00275205 0.00678715 0.00786697 -0.00717845 0.00419179 0.00621291 0.01017 0.00161875 0.0019865 0.00149942 0.00531016 -0.00925856 0.00962853 -0.00541285 0.00707061 0.00551406 0.0006352 -0.0091292 0.00647022 0.00286027 0.00521125 -0.000987784 0.00645063 -0.00819559 -0.0017674 0.00454987 0.00088686 -0.00188089 -0.00624244 -0.00653721 0.00463869 0.00125972 0.00418447 0.000726729 0.00664252 3.30006e-05 0.00202628 -0.00415082 0.00353284 -0.00740399 0.00790688 -0.00410574 0.00843026 0.00820752 -0.00901353 
千金记 -0.00327844 0.00387692 -0.00690515 0.0041289 0.00780203 0.00381977 0.00466631 -0.004068 -0.000536897 -0.00596084 0.00826324 -0.0022598 0.00777266 0.00177292 0.00937161 0.00465736 -0.00683129 -0.00665064 0.00724933 -0.00164926 0.00212789 0.00768145 -0.00623389 0.00365252 0.0063287 -0.00205838 0.00268628 0.00202618 0.000856711 0.00628069 0.00395062 -0.00937378 -0.00299712 0.00799758 0.0076318 -1.31133e-05 -0.00834643 -0.00562446 0.0032669 0.00882749 0.00949207 0.00654849 -0.000951758 -0.00175629 -0.0104563 0.0037564 0.00877156 -0.00629637 -0.00870272 0.00868014 
杀身之祸 -0.010984 -0.00568666 0.00461856 -0.00362545 0.00663215 -0.00168869 -0.00202791 -0.00341161 -0.00353785 -0.00843025 -0.00844551 -0.00518051 0.00601559 -0.00112075 0.00633319 -0.00657663 0.00406402 0.00560765 -0.008199 -0.00695674 0.00957843 0.000183832 0.0079873 0.00464252 -0.0058684 0.00522147 -0.00127014 0.0049733 0.000885731 0.00701949 0.00566638 0.00220736 0.0086734 -0.00916 -0.00457143 0.00208426 -0.00323906 0.00524506 0.00468731 -0.00893766 -0.00582946 0.00543875 0.00976212 0.00684341 -0.00645367 -0.00998288 -0.00781083 0.00577659 -0.0089278 0.00565112 
默 -0.00909226 -0.000513248 -0.00640367 0.00150635 -0.0102744 -0.00322752 -0.0123311 0.00691645 0.00975729 0.00565587 -0.00296193 -0.000430036 0.00457289 -0.000601571 0.0141568 -0.00110319 0.00403341 -0.00737307 0.00603648 0.00662565 0.00360309 0.00403209 0.00726272 -0.00328028 0.0111328 0.0114501 0.00374255 -0.0035077 0.00889612 -0.00216523 0.00944805 0.00197452 0.00916461 -0.00167458 0.0071954 -0.00629374 0.0019816 -0.0111125 0.00241821 0.00285833 -0.0066546 0.00447442 0.000123078 0.00644465 -0.00927733 0.0039056 0.004365 -0.00909725 0.00344137 0.00566738 
对你的爱 -0.0051842 -0.00454052 0.00551295 -0.00667157 0.0039098 -0.00712671 -0.00716 0.00697631 -0.000132877 -0.00471747 -0.00903373 0.0101262 -0.0105305 -0.00156309 -0.00278627 -0.00228809 0.00162995 0.00127595 -0.00603927 0.00123514 -0.00915496 0.0101807 -0.00604639 0.00470844 0.00586762 0.00914555 0.00498039 0.00176116 0.00948533 0.00414271 0.00101783 -0.00294309 -0.0072347 -0.0103007 0.00649342 -0.0053964 -0.00378133 -0.00527825 -0.0015407 0.00695741 0.00990108 0.00678225 0.0105119 -0.00910925 -0.000622416 -0.000590738 0.00701814 0.00308757 0.00450342 0.00695356 
星光 -0.00245793 -0.00238578 0.00555639 0.00344373 0.00340677 0.0035617 0.00237071 0.00120068 0.0054388 -0.00670309 0.00118006 -0.00248109 -0.00163915 -0.00193651 -0.00220089 -0.00232677 -0.00615524 0.00900581 0.00953792 0.00240923 -0.00105679 0.00634799 0.0088759 -0.00310495 0.00903136 -0.000772385 0.00126348 -0.00705995 0.00854535 0.00735915 0.0102377 -0.000332106 0.00932584 0.00475052 0.0085461 -0.00315991 0.00248197 -0.0107971 -0.00339032 -0.00584073 -0.00222843 -0.00739826 -0.00137813 -0.00266928 -0.00701344 -0.00177822 0.00037157 0.00634647 0.00194145 -0.00192151 
唱歌 -0.00258113 0.00906781 0.00653473 -0.00899285 -0.00859094 0.00205701 0.00753811 -0.00974675 -0.00140827 -0.00093304 -0.00208276 -0.00338483 0.00745281 0.00146049 -0.00365167 0.00893981 0.00515305 -0.00574578 -0.00547974 -0.00851081 -0.00815361 -0.00650517 0.00883078 -0.00648277 -0.00206944 0.00539696 0.00114749 0.00449307 -0.00940211 0.00371137 -0.00678818 -0.00571463 -0.00477675 -0.00694856 -0.00608682 -0.00955497 -0.00388966 -0.00259376 -0.00784515 -0.00281028 0.000218133 0.00491958 -0.00397001 0.00988302 0.0083363 0.00357624 -0.00849187 -0.00384537 0.00399687 0.0066965 
忙 0.000719932 0.0032627 0.0102638 -0.00715019 -0.00983107 -0.00977709 -0.0101191 -0.0100731 -0.0077958 -0.00919677 -0.00616299 0.00359331 0.00339281 0.00906063 0.00850354 -0.00279546 -0.0044983 -0.00189983 0.0061468 -0.00521015 -0.00301594 -0.00966443 0.00761507 0.00531122 -0.00391927 -0.002768 -0.00673551 0.00373513 0.0075796 0.0074841 0.0051606 0.00047878 -0.00926807 -0.00962531 -0.00955767 0.00327523 -0.00909637 -0.00691258 -0.000776919 -0.00627175 -0.00770938 0.00964907 0.000377119 0.00262974 0.00518326 -0.0093694 -0.00613709 -0.00916788 -0.00937809 -0.0008497 
幽静 0.00111538 -0.00996481 -0.00166636 -0.00699829 0.00803385 -0.0062892 -0.00507717 -0.00584738 0.00986956 -0.00720209 0.00345097 -0.00177938 0.00917023 0.00450717 0.00226275 0.00846578 -0.00381378 -0.00415332 0.0053683 -0.00656899 -0.00711216 0.00998931 0.00450295 0.00417621 0.00267737 0.00301003 -0.00849145 -0.00219744 0.00920374 -0.00472219 -0.000924219 0.00925445 0.00320578 -0.0104405 0.000887034 0.00890335 0.00562168 -0.00940835 0.00188747 0.0054943 0.00892867 -0.0080319 0.00827089 0.00637669 0.00843223 -0.0093928 -0.00674957 0.00455762 0.0023039 0.00339164 
只有 -0.00917543 -0.0070164 0.00473397 0.00959444 -0.00861111 0.00683296 -0.0113065 0.00366649 0.00886134 0.00308528 0.0064058 0.00793934 0.00854578 -0.00317301 0.0132254 -0.00693441 0.0055206 0.00905559 0.00131535 -0.00463846 0.00334323 0.00241647 0.00509289 -0.00369221 0.000233704 0.0154727 0.000100422 -0.00504012 -0.0018174 0.0107792 0.00653164 0.00201971 -0.00602094 -0.00463506 -0.00288146 -0.00720898 0.00826242 0.0029863 -0.0128598 -0.00157796 0.00274296 0.00528503 -0.00369896 -0.00668156 -0.0107858 -0.00405585 0.00380473 0.00528809 0.00639088 -0.0085966 
1963 0.00720761 0.00217657 0.00813168 0.00309053 0.0050122 0.0078159 0.00653796 0.000936616 3.28764e-05 -0.00816591 -0.00768564 -0.0021059 0.00850525 0.0102111 0.00821726 0.00738113 -0.00671751 0.00559766 -0.0011842 0.00929104 -0.00140343 0.000385859 -0.00976237 0.00596538 -0.00501193 -0.00525455 -0.0035932 -0.00893344 -0.000917401 0.00326724 -0.00870837 -0.00848263 0.0089728 0.00729953 0.00253244 -0.00535373 0.00532647 0.00915587 -0.00165656 0.00973136 -0.00329156 0.00803224 0.0100464 0.00272252 -0.0081894 -0.0096047 0.00927662 0.00491143 -0.00205517 0.00715663 
书单 -0.000926268 0.00392705 0.00368336 0.000680403 0.00444745 -0.0044139 -0.00590805 -0.00504311 -0.0021885 -0.00514609 -0.00566078 0.0108723 -0.00629979 -0.00469939 0.00861652 -0.00316402 0.00770246 0.00786466 -0.00397876 0.00748388 -0.000815369 -0.0020074 -0.00470843 -0.00258268 0.0027879 0.00160947 0.0035935 0.00553171 -0.00580446 -0.00652276 -0.00243953 0.0094842 -0.00840539 -0.00329738 0.0102433 -0.00961155 -0.00422226 0.00133575 -0.00793936 -0.00339407 -0.00889322 -0.00425332 0.00632503 0.00688925 -0.0061537 0.00306132 -0.00747042 -0.0103738 0.00452325 0.00248363 
十二 0.000968221 -0.00387267 0.00251821 -0.00112411 -0.0101092 0.00267556 -0.00352264 0.00358584 -0.00600623 -0.00781168 -0.000191917 0.00652063 0.00419793 -0.00624527 0.00589732 -0.00685938 -0.00219533 -0.00951308 0.00632331 0.00166053 0.0011334 0.00301093 0.00628749 -0.00905116 0.00501136 -0.00768857 -0.00581968 -0.00417735 -0.00880094 -0.00585891 0.00773678 0.00477183 -0.00509589 -0.00127623 -0.00686387 -0.00513245 0.00391451 -0.00199026 0.00903304 0.00133878 0.009527 0.00205616 -0.00396928 0.00166986 0.00102727 0.00929298 -0.00875001 -0.00756329 0.00787621 0.00395344 
名利 0.000785319 -0.00138986 1.67948e-05 -0.000485768 0.00876935 0.00832293 0.00530568 -0.00595435 0.00716506 0.0010723 -0.00601626 0.00976893 0.00849329 0.0090753 -0.00315546 -0.00746085 0.00266458 0.00390714 -0.0033907 -0.000324558 0.00591482 -0.00306017 -0.00168568 0.00743564 0.00130098 0.00556034 0.00101888 0.00842505 0.00703977 0.000175635 0.00611567 0.0106187 -0.00267883 0.00515015 -0.00574352 0.00358121 0.0093985 -0.00457609 -0.00124077 0.00993184 0.00217685 0.00343832 0.00113527 -0.0048237 -0.00563812 7.21559e-05 0.00412287 -0.00883818 0.00142694 0.00563462 
青涩 -0.00653417 -0.00646181 0.008039 -0.00991635 -0.00288771 -0.00458723 0.00143095 0.00165578 -0.00241352 0.0066568 0.00077456 0.00541204 -0.00617122 0.00807583 -0.00619582 0.00914903 -0.00919998 0.00567874 0.00218993 0.00200505 -0.00897684 -0.00883501 0.00560703 0.00874749 0.0102381 -0.00696701 -0.0085082 -0.000237631 0.0082085 0.0119374 0.00253662 0.00848593 -0.00876431 0.00545097 -0.00408737 -0.00934458 0.00618227 -0.00813487 -0.00354117 -0.00232357 -0.000691705 -0.00865656 -0.00119169 8.71249e-05 -0.00859301 -0.00607554 0.00772246 -0.00896222 0.00624763 -0.00925225 
不过 -0.00995271 0.00136596 0.00350927 -0.00208085 -0.000238661 0.00916151 0.0024204 0.00428092 0.00804134 0.00821585 -0.0021603 -0.000335128 0.00791974 -0.00550555 0.00882876 0.00509295 0.00433768 0.00905928 -0.00273291 -0.00556932 -0.00179571 -0.00116487 0.00224188 0.000314902 0.00952025 -0.00212406 -0.0063764 -0.000136451 -0.000198863 0.00548353 -0.00129582 0.00373212 0.00868794 -0.00471633 -0.00972477 -0.00725527 0.00768116 0.00710918 0.00468146 -0.00194626 -0.00218139 0.00637038 -0.00164339 -0.00306181 -0.00211081 -0.00857261 -0.00168786 0.00343207 0.0060555 0.00555849 
出生 -0.00684172 0.000888169 -0.00073213 -0.00344043 -0.00183166 -0.00611715 -0.00668872 -0.0041763 -0.00844297 -0.0142713 0.000973265 0.00642144 -0.00365639 0.0122053 0.0102605 -0.00846449 0.00983966 -0.00671297 -0.00421153 0.000745256 0.00536954 0.00839865 -0.00300085 -0.0109082 0.0139401 0.0115102 0.0128393 -0.00245493 -0.00236132 0.00957036 0.0142672 -0.000880436 0.00558963 -0.0088402 -0.00206507 -0.00317815 0.0173548 0.00528301 0.00315138 -0.00257321 -0.00461167 0.00409606 -0.000224572 0.00707877 0.00196879 -0.00948571 0.000173405 -0.00888121 0.00567503 0.000287736 
校 0.0013365 -0.00927745 0.00431759 0.000771774 0.00133814 0.00955074 0.00778112 0.00161792 0.0062559 0.00679414 0.00848691 0.00240008 0.00137775 0.00724624 0.00557814 0.00794722 0.00562203 -0.00247791 -0.00272746 -0.00471954 -0.0056846 0.000197757 -0.00819355 -0.00867826 -0.00367817 -0.00315745 0.00794807 0.00246054 0.00204381 0.00482275 0.0020243 0.00722154 0.00254061 -0.00914849 0.00967761 0.00515494 0.00944914 -0.00439044 -0.00668766 0.00311722 -0.00432173 0.00476718 0.00422819 -0.00777985 0.00752316 -0.00851966 -0.0081407 -0.000289739 0.00229528 -0.00156342 
希望能够 -0.00176918 -0.00461248 -0.00395775 -0.000176765 -0.00841502 -0.00210102 0.00271118 0.00755536 0.00911841 -0.0102013 0.00490419 -0.00759455 -0.00638536 -0.00198616 -0.00641534 -0.000935706 0.00981478 0.00817579 0.00241255 -0.00540848 -0.000259963 0.00723678 -0.00591099 0.00214442 -0.00335878 0.0079466 0.00229236 0.000604969 0.00255202 -0.00217407 -0.00530258 -0.0024342 -0.00917945 -0.000700536 0.00825141 0.00526142 0.0102594 0.00169938 0.00902518 0.00139147 0.00369911 1.03765e-05 -0.00529522 -0.00586872 -0.00473163 -0.00205357 -0.00278941 -0.0103653 -0.00404658 -0.0104244 
同时 -0.0123556 -0.00572967 -0.00290241 -0.00112329 -0.0115576 0.00736202 -0.00731313 -0.0069157 -0.00865769 -0.00793986 -0.00577916 -0.0017787 -0.00878552 -0.00503668 0.00945776 -0.00305773 -0.00313514 0.00908703 0.00950541 -0.00270034 0.00419102 0.00839759 -0.00910371 0.00799429 0.0104115 0.0107065 -0.00638023 -0.00899379 -0.00179841 0.00356144 0.00539804 0.000977597 0.00201619 -0.00959565 0.00885903 -6.47904e-06 0.0103316 0.00620874 0.0067198 0.0055651 0.00830035 0.002634 -0.00242597 -0.00208392 0.000722267 0.00295497 0.00428183 0.00178323 8.47933e-06 -0.00666508 
轨迹 -0.00384633 -0.0101537 0.00774816 0.000565401 -0.00669433 0.00100109 0.00309504 0.00615695 0.0012808 -0.00763171 -0.00326443 -0.00305187 -0.00582467 0.00346028 0.00661958 0.00736673 -0.00697337 0.00386283 0.00900377 -0.00551721 -0.00512365 -0.00166883 -0.0084664 -2.42362e-05 -0.00778906 0.00561373 -0.00671849 0.00792482 0.00574893 -0.00040127 0.00688579 -0.008787 -0.00130603 0.00100369 0.010077 -0.00126458 -0.00742417 0.0014585 -0.00247014 0.00590656 -0.0035391 -0.00834924 0.0087003 -0.00744462 -0.00861217 -0.00808392 0.00625549 -0.0106047 0.00533383 0.00675226 
死 0.00606269 -0.00534025 -0.00671713 0.00813617 0.00269145 -0.00179643 0.00385878 1.38807e-05 -0.00242754 0.000725319 -0.00105186 -0.00707875 -0.00309903 0.00504262 0.00799615 0.00343929 -0.00139208 0.0102736 0.00865787 0.00386179 -0.00613981 0.00141009 -0.00549916 0.0065937 -0.000455427 0.0113277 -0.00700552 0.00707646 0.00981594 0.00721673 -0.00319944 0.000987158 0.00281269 -0.0110703 0.00542295 -0.00317673 0.00514664 0.00590602 -0.00983022 -0.00523375 0.00292383 0.000141262 0.00513766 -0.00183716 0.00743924 0.00794348 -0.00352895 -0.00173325 -0.00544694 -0.00958566 
武侠小说 0.00558615 0.00310812 0.0042107 -0.0066601 -0.00875944 0.00818023 -0.00596074 0.00205064 -0.00797614 -0.00547769 -0.00894611 -0.00692112 0.0022251 0.00623228 0.000895995 0.00459858 0.003611 -0.00186751 -0.00910851 -0.00807593 -0.00131937 0.00831586 -0.000496344 -0.00986722 0.00158081 0.0107302 0.00255556 -0.00918388 0.00933862 0.00701688 0.00696956 0.00340041 -0.00495198 -0.00349733 0.000545017 -0.00980859 0.00270608 0.00484699 -0.000768836 -0.00839675 0.00347107 0.00652106 -0.00713937 -0.00927915 -0.00646065 0.00932285 0.00646479 -0.00482242 -0.000571267 0.00352083 
腾讯 -0.0179704 -0.00782654 0.0140473 8.95822e-05 -0.00565311 -0.00274672 -0.00635384 0.0089837 0.000438188 -0.00132635 0.00744742 0.00654801 -0.00561205 -0.00075927 0.00222906 0.00511088 -0.00441673 0.00134671 0.00169313 -0.000764801 0.00137824 0.00635331 -0.000859018 0.00239853 0.00853871 -0.00133264 -0.00500045 0.00134813 0.000956658 0.00816051 0.000530827 0.00558889 0.00588713 0.000178601 -0.00425896 -0.00412152 0.0128467 -0.0057779 0.00419633 0.00243309 0.00602239 0.00533651 -0.000213009 0.000790568 -0.00893719 0.00564297 -0.00415041 0.000526961 -0.00122978 0.0059635 
毫无 -0.010127 -0.00855618 0.0117098 -0.00832903 0.00849723 0.00316491 -0.0055138 -0.000486666 0.00358335 -0.0102685 0.00687499 -0.00189188 0.00528515 0.00887414 0.0111096 0.00602067 -0.00844323 -0.00296303 0.001744 0.00251679 2.99426e-05 0.00865997 0.00397266 -0.00481262 -0.00173094 0.00647275 -0.00496209 -0.00358149 -0.000779752 0.00530068 0.00140053 0.0029243 0.00806529 -0.0116191 -0.00799323 -0.00382138 -0.00631051 0.00188323 0.000618545 0.0100875 -0.00842672 -0.00203028 0.00574023 -0.00700192 -0.00141297 -0.000757663 0.00937359 -0.00475999 4.07599e-05 -0.00270059 
王国 -0.00595221 0.00524332 -0.00754176 -0.00899638 -0.00889028 0.00504258 -0.00936899 -0.00279219 0.00177071 0.00625004 -0.00679732 0.00944571 0.00507201 -0.00859125 0.00600536 -0.0060822 9.73385e-05 -0.00927548 -0.000438779 -0.00593154 -0.0058552 -0.00546808 0.00562569 -0.00894554 -0.00864592 0.00857077 0.00394533 -0.00997674 -0.0056569 0.0039821 0.00621449 0.000548088 -0.00525294 0.00555561 0.00443578 -0.00660159 -0.00194355 -0.00209381 -0.00791423 0.0100971 0.0102328 -0.0084539 -0.00107146 0.00487659 -0.000520495 0.00487372 -0.0037214 -0.00752516 -0.00812779 -0.00796506 
小小 -0.00239742 -0.0079534 0.00828326 0.00309323 0.00180519 -0.00176225 0.00662759 -0.00225098 -0.00985747 -0.00889574 0.00650829 0.00531597 -0.00930265 0.00480195 0.00847209 0.00246697 -0.00633243 -0.00586015 0.0041081 0.00798937 0.00973401 -0.00757829 0.00371047 -0.00853211 0.00359244 -0.0059469 0.00292225 0.00717149 0.00566587 0.00929436 -0.00343655 -0.0089681 0.00612688 0.00598813 -0.00496887 0.00618908 0.00246148 0.00141788 -0.00735402 -0.00557258 0.00377038 0.00481306 0.00108798 0.00554663 -0.00276868 -0.00762774 -0.00657428 -0.00487479 0.00119969 0.00416345 
涨 0.001471 -0.0073261 -0.00229316 -0.00215418 0.00712657 0.00264283 -0.00160125 -0.00624994 -0.00571719 -0.0076018 -0.00787439 0.00274611 0.00406941 -0.00682639 0.00908955 -0.00144005 0.00454543 0.00272775 -0.00033646 -0.00346506 0.00089291 -0.00498643 -0.0049179 0.00510933 -0.00519762 0.00464325 0.00741136 -0.00966505 -0.000928658 -2.35552e-06 0.00807171 -0.00101522 -0.00799818 -0.00517488 -0.00585846 -0.00475585 -0.00712186 -0.00457665 -0.00861022 0.0057979 -0.00774842 0.00476784 0.00565354 -0.00133419 -0.0068981 0.00551915 0.00684048 0.00015569 -0.00889967 0.00120284 
卖给 -0.00447515 0.00372932 -0.00421289 -0.00497813 -0.000759012 -0.00339341 -0.00926231 0.0035719 0.00350182 -0.000428813 -0.001418 0.0101151 0.000199523 0.00986207 0.00845444 -0.00431955 -0.00257225 0.00929494 -0.00138532 0.00416674 0.00603469 -0.00205456 -0.0066565 -0.000702425 0.010851 0.00208953 0.00841292 -0.00628952 0.00385318 -0.00549139 0.00310308 -0.00713329 0.00284622 0.00732512 -0.00151174 0.00679447 -0.00706938 0.00352202 -0.00939826 0.00916424 0.00925217 0.00373763 0.00975545 0.00803318 -0.00448263 0.00358148 0.00324319 0.00805303 0.00728703 0.00118255 
择天记 -0.00478377 -0.00215016 0.00689785 -0.00244208 0.00500828 -0.00284286 -0.00517245 0.00863037 -0.00813225 0.000294298 -0.00373494 -0.00710204 0.00363399 -0.00770497 0.0116148 0.00521794 0.00462209 0.00186481 -0.00644399 0.000359026 0.00695168 0.00222652 0.000235143 -0.0021691 0.00453227 0.00790384 0.000264925 0.00611338 -0.00046132 0.00300181 -0.00181613 0.00959289 -0.00542264 -0.00507056 0.00365112 0.0011179 -0.00144279 -0.00312327 -0.0073624 -0.00783628 0.00729462 0.000429271 0.00964806 0.0106934 -0.00886986 0.00460778 0.000409089 0.0032622 -0.00515175 -0.0112723 
褪去 -0.0095763 0.00944652 0.00847478 0.00775947 -0.00897926 -0.00656284 0.000936934 0.00600615 -0.00461445 0.00759044 0.00625782 0.00151668 -0.00836025 -0.00488522 0.00372592 -0.00906769 0.000990577 0.00195294 -0.00780387 0.00584924 0.00870759 -0.00370083 -0.00229217 0.00353023 -0.0061951 0.00752785 -0.00282549 -0.0101009 0.00575763 0.00413453 -0.00513639 0.0040268 -0.00967503 0.00221561 -0.00456371 0.00770447 0.00765463 -0.00793006 0.00718696 0.00422665 0.00834414 0.00140828 0.00160906 -0.00567398 -0.00652217 -0.00400747 -0.00302032 -0.0107396 -0.000751043 0.00745386 
有 -0.0491554 -0.0146273 0.0267735 0.00165104 -0.0214593 0.00448431 -0.0294466 -0.00839429 -0.000842892 -0.0217993 -0.000377656 0.0166533 -0.0138446 0.024346 0.059849 0.00720448 -0.00506144 0.0150706 0.0243835 0.0177927 0.0034503 0.0115273 0.00361527 -0.000982301 0.0340174 0.044123 0.0145037 -0.0329831 0.009283 0.0479127 0.0170846 0.0224686 -0.00645598 -0.0241451 0.0144146 0.00168036 0.0238838 -0.00932739 -0.0196493 0.00386343 0.0176922 -0.00712354 0.0252769 0.0121604 -0.0272969 -0.00338152 0.00664031 -0.0243493 0.0126 -0.00906055 
刻画 -0.00517269 -0.00465666 0.000577607 -0.00393803 -0.00774053 0.000649583 0.00647739 0.00562589 0.00235605 0.00573044 0.00815319 -0.00806212 -0.00611588 0.000382661 -0.00151637 -0.00982756 0.00542934 -0.000787011 0.00853795 0.00147464 -0.000429038 0.010573 0.00825336 -0.00767471 0.00717626 -0.000973473 0.00545702 0.0020444 -0.00895997 0.00774254 -0.00375486 0.00975948 -0.00896266 0.00326294 0.00390166 0.00225925 0.00897278 0.00888784 -0.00733301 -0.00108787 -0.00579878 -0.00170643 -0.00491286 0.0104432 0.0033427 0.00538352 -0.00389916 -0.00937505 -0.00896307 0.00237192 
抵死 0.00787092 0.00764986 0.000388969 -3.52155e-05 -0.00698824 0.00807502 0.00616489 -0.00908433 0.00394648 0.00526456 -0.00102794 -0.00378915 -0.0060444 0.00335343 -0.0011289 0.00945805 0.00518222 -0.00517557 -0.00595198 -0.00613868 -0.00217042 -0.00403661 0.00590304 0.00548507 0.00335091 0.001172 0.00464064 -0.0102941 -0.00201939 0.000404079 0.00676265 0.00665512 -0.00580161 0.0092815 -0.0059383 -0.00658293 0.00277535 0.00601465 -0.00264119 0.00171942 0.00277369 -0.00786439 0.00103907 -0.00553998 -0.0104299 0.00938079 0.00083077 -0.00723546 -0.00106871 -0.00231036 
啰嗦 -0.000346124 -0.00088342 -0.00105824 -0.0015315 0.00536578 0.0062322 -0.00394992 0.00456625 0.000101616 -0.0119939 0.00201521 0.0060369 -0.00488449 0.00842492 0.00262726 -0.00243529 0.00657499 0.00840393 -0.000220842 0.00780666 -0.000582371 -0.000843883 -0.0035196 0.0083062 0.0113803 -0.00468919 0.00391574 4.93861e-05 -0.00125991 0.0030344 0.00617381 0.00963725 -0.00489659 -0.00361959 0.00805095 0.00853849 0.0104684 -0.00203065 -0.00638564 0.00609456 0.0052724 0.00249508 0.00679364 0.00598104 0.00450785 0.00914921 0.00504335 0.00810479 0.00946271 4.57025e-05 
以及 -0.0102755 -0.00573285 0.00937921 -0.00535705 -0.00330425 0.00301449 0.005704 0.00488842 -0.0082956 -0.01161 -0.00752984 0.0108572 -0.00835513 0.00855415 -0.00669825 0.0090198 0.00725673 -0.000939751 -0.00172116 -0.00174994 0.00865729 0.00671871 -0.00953083 -0.010061 -0.000200016 0.00035396 0.00378572 0.00500244 -0.000239979 0.00908715 -0.00658022 -0.00315815 0.00462385 0.00490551 -0.00671579 0.00531228 -0.000491747 -0.00164274 0.00689835 -0.00214887 0.00922368 0.00333929 -0.00284976 0.00162676 0.00224875 -0.00159572 -0.00248593 -0.00561093 0.0052107 -0.00842709 
古风 -0.00510074 0.00759356 -0.00140581 -0.00192991 0.00553344 0.00687124 -0.00869912 -0.00855727 -0.00125794 -0.00551287 0.00613914 0.00852592 0.00686544 0.010883 -0.00480793 -0.00233194 -0.00472066 -0.00597499 0.0100743 0.00606923 -0.00181653 -0.00042743 0.00320822 0.00199494 0.0024875 -0.00329339 -0.00144407 -0.0065053 0.00438532 0.000961743 -0.00821897 -0.000548503 -0.00622574 0.00275279 0.00132635 -0.00538495 0.0031172 -0.00204853 -0.00487153 0.00375922 -0.00213584 -0.00754245 -0.00543869 -0.00626432 0.000312111 0.00421263 0.00190804 -0.00277698 -0.00468394 0.00803858 
是否 -0.00566144 0.00791219 0.0071089 -5.33773e-05 0.00137003 -0.00114064 0.00326727 -0.00914611 -0.00153429 0.0020646 -0.00233282 0.00374539 0.00766377 -0.00300004 0.00902546 -0.00347688 0.00523556 0.00192435 0.00628708 -0.00494268 -0.00326183 0.0065784 -0.00516667 0.00312316 0.00650661 -0.00123002 -0.00348468 -0.00424181 0.00127234 -0.000936786 0.00205003 -0.00282479 0.00221236 -0.00120779 0.00913547 0.00406523 0.00969553 0.000392686 -0.00142422 -0.00803694 0.00847112 -0.00569003 0.00538883 0.00402569 0.00637212 0.00489781 -0.00763129 -0.00359503 0.0089508 0.0047015 
想要 -0.0137926 0.00284897 0.00388461 0.00896305 -0.00705957 0.00604921 -0.00961344 -0.000126394 0.00499394 -0.00553813 0.0013512 -0.00415974 0.00354476 -0.00464226 -0.00369564 -0.00714512 0.00454574 0.00176629 0.0107999 0.00664399 -0.0022552 0.00745231 0.00894053 -0.00393727 0.00639769 -0.00467757 -0.00821931 0.00673294 0.00491433 0.00626342 -0.000159921 -0.00785188 -0.0079117 0.00736732 0.00786298 0.00314041 0.0124248 -0.00225937 -0.00200741 0.0018499 -0.000926293 0.00682756 0.00421375 -0.00587681 -0.00322464 -0.000578993 -0.00172136 -0.00636222 0.0093642 -0.00465459 
很好看 0.00398876 -0.00937156 0.00690231 -0.00666632 -0.00687432 -0.000952418 -0.00775213 -0.00641791 0.00681414 -0.00535989 -0.00675649 0.000640937 -0.00938166 0.00183333 -0.0040672 0.00862073 -0.00755763 -0.00224668 -0.00320012 -0.00487894 0.00648297 -0.00291058 -0.00871205 0.00483881 -0.0079366 -0.00554093 0.00693512 -0.0070955 -0.00699721 0.00964498 -0.00229496 0.00923049 -0.00286181 -0.00926444 -0.000905565 -0.00433986 0.00910605 0.0094607 0.00124747 -0.00506551 0.00660268 -0.00695709 -0.00747052 -0.0070256 0.0063477 0.00710534 0.000727099 0.00838642 -0.00355736 0.00576199 
一开始 0.00220885 0.00291612 -0.00829788 -0.00326016 0.00357431 0.00417595 0.00337571 0.00570126 0.00296617 -0.00513703 0.00981081 0.00506179 -0.00315378 0.00947432 0.00670866 0.000961044 -0.00929851 0.00494237 0.0021186 -0.00734242 0.00984601 0.000628029 -0.00664772 0.00513322 0.00746457 -0.0077019 0.00927683 -0.00836098 0.000921312 -0.00841639 0.00766605 -0.00481153 0.00229569 0.00445614 0.000766641 -0.00368383 -0.00636439 0.00721224 0.00953517 0.0083231 -0.0048285 -0.00823018 0.0102153 -0.0093568 0.00489114 0.00848492 -0.00328009 0.00387675 -0.00531554 0.00845036 
薰 -0.0096261 -0.000610893 -0.00533105 -0.0033908 -0.00204627 0.00160437 0.00429147 -0.00748923 -0.000699848 0.00746906 0.00620792 0.00770162 0.00120481 -0.000639053 0.0108188 -0.00560328 -0.00299781 -0.00464248 -0.000397751 0.00795743 0.0098479 0.0074942 -0.0052742 0.001232 0.00752315 -0.000613982 -0.00408423 -0.00873794 0.003395 0.00249934 0.00632443 -0.00183249 0.00563362 0.00779629 0.00939394 -0.00460911 -0.00132125 0.000730182 0.00677276 -0.00200821 -0.0074682 -0.00712511 0.00487337 -0.00354039 -0.00923983 0.00943581 -0.0052801 0.00553208 0.00262401 -0.00568356 
jingyan -0.0231621 -0.0112441 0.00261202 -0.00289723 -0.000171089 -0.0020634 -0.0156493 0.00280017 -0.0021139 -0.00582509 0.00175769 9.11295e-05 -0.00509639 0.000249984 0.0133108 0.00629756 0.000803687 0.00710821 -0.00470477 0.00794437 -0.00165323 0.0118666 0.00144081 0.00268002 0.0158234 0.00561301 -0.00476661 -0.00941169 0.0090661 0.00554422 0.00240452 0.000422529 0.00531546 -0.00197156 0.00466181 0.00751294 0.0052349 -0.00278479 0.00269318 0.00931371 0.00663907 -0.00114841 0.00312718 0.0107676 -0.00796876 -0.00624075 0.00122316 -0.0053123 -0.00369608 -0.0111717 
红衣 -0.00844264 0.00388015 0.00602621 -0.00713639 -0.0101428 0.00528881 0.00563402 0.00380251 -0.00686553 0.00795059 -0.00247056 -0.00602055 0.00126162 0.00489343 0.00640914 0.00574627 0.00680307 -0.00321689 0.000409607 -0.00692291 0.00127602 -0.00307852 -0.00134428 0.00408701 0.00550096 -0.00392001 0.00189871 0.00345616 0.0048427 -9.14035e-05 0.00917388 -0.00292536 0.00666191 -0.0101837 -0.00503687 -0.00762932 0.00219581 0.00457841 -0.0103086 0.0071665 -0.00778384 -0.00318779 0.00407642 -0.00700131 -0.00145717 -0.00595578 -0.00919397 0.00686988 0.0107023 -0.0111604 
陈长生 0.00335169 0.00187245 0.00877413 0.00177373 -0.00281361 0.00501811 -0.00541546 0.00307884 0.00202627 0.0043735 -0.00530087 -0.0068206 0.00188903 0.0104463 -0.00135507 0.000523978 0.00165032 -0.00326956 0.00341672 -0.00124273 -0.00871345 0.00182863 -0.00155018 0.00671805 0.0113978 -0.00148626 0.0065492 -0.00434002 -0.00137413 0.00372273 0.00245459 0.00790831 0.00864642 -0.00717946 0.000294217 0.00663231 0.0081634 0.00232138 -0.00858018 -0.00897243 -0.00815054 0.00838696 0.00824483 0.0102619 -0.00154498 0.00964469 0.00673073 -0.00903666 -0.0074898 -0.00514903 
鹿晗 -0.0047352 0.00446622 0.00165007 0.00332412 -0.0078035 0.00683085 0.00150211 0.00803184 -0.00839433 0.0040394 -0.0019909 -0.0051189 -0.00756739 0.00967839 0.0116018 -0.00182032 -0.00395247 0.00699625 0.00719413 0.0032165 -0.00392228 0.00423661 -0.00389506 -0.00441266 0.00468144 -0.00491119 -0.00686891 0.000900613 -0.00368312 0.000654919 0.00978152 0.00559227 -0.00901074 -0.0103043 0.00181395 0.000309384 0.00305985 -0.00313537 -0.00128216 0.00845125 -0.00340093 -0.010349 0.0103788 -0.00801563 -0.0111752 -0.00892998 -0.00556265 -0.00404041 0.0017883 0.0032964 
用 -0.0351488 -0.0136835 0.0180539 0.00225011 -0.00011941 -0.00736381 -0.0102119 0.00302833 0.00959905 -0.0233628 0.00562269 0.0161166 0.000608948 0.0187554 0.0252101 0.00879708 -0.0020682 0.00152347 0.00602288 0.0171551 -0.00243865 0.00141518 0.00433694 -0.00357881 0.0332371 0.0317091 0.0128685 -0.012531 -0.00105363 0.0349751 0.0159729 0.0152399 0.00322992 -0.0104538 -0.00510863 -0.0097891 0.0239075 -0.000974466 -0.0231976 0.00602451 0.0112301 -0.0134282 0.0159556 0.00688361 -0.0142537 0.000975714 0.0115469 -0.00281904 0.0174235 -0.0193634 
由于 -0.00894348 -0.010246 0.0109655 0.00140912 -0.00782663 -0.000668333 -0.00926206 -0.000643852 -0.00721356 -0.00234085 0.00525759 0.00547603 -0.00764421 0.00579242 0.0102128 0.0019063 -0.00535133 -0.00797926 -0.00374982 0.00267308 0.00819617 0.00040676 0.00205877 0.00428546 -0.00427058 0.00951813 0.00196395 -0.00135244 -0.00274149 0.00753504 -0.00426766 0.00537094 -0.00903877 -0.0120334 -0.00434139 0.00748552 0.00825777 0.00573296 -0.00368945 -0.00299288 -0.00477643 -0.00225316 0.0115135 -0.00152482 -0.00833128 -0.000176915 -0.00581328 0.00237886 0.0100898 -0.00881544 
将军 0.00111501 0.00552981 0.000314084 0.0067473 -0.00665582 0.00154359 -0.011047 0.0096806 0.00141887 0.0039908 -0.00333898 0.010656 0.00653177 0.000212276 0.0043057 0.000258369 -0.000950492 0.00520595 0.00112864 0.00301405 -0.00873175 0.00992407 -0.00785156 -0.0095467 0.0110862 0.00045475 -0.00101669 -0.00706405 -0.00298788 0.01041 0.00858224 0.00399009 0.0048891 0.0058494 0.00167305 -0.00609117 0.00919891 -0.00835807 -0.00994865 -0.00363247 -0.00542421 0.00593863 -0.000145479 0.000571893 -0.00303429 0.00627312 -0.00848632 -0.00887324 -0.00253062 0.00205319 
流产 -0.00181019 0.00113985 -0.00333639 -0.00196331 0.00801078 -0.00106817 -0.002014 0.00391074 0.00799599 -0.00117828 -0.00690555 0.00265577 0.000244976 0.00550832 -0.000589566 -0.00401377 0.00316678 0.00766748 0.00424353 -0.00532123 0.00414346 0.00686357 -0.0051719 0.00282318 -0.00722001 0.00904777 0.0052252 -0.00863115 0.00324503 0.0089274 -0.000171052 0.00372481 -0.0037737 -0.0106573 0.00905393 0.00686677 -0.0079935 0.00443811 -0.00398588 0.0060736 0.00904885 -0.0039131 -0.0091379 -0.00416191 0.00568542 -0.00695149 -0.00328128 0.00225575 -0.00590554 0.00778964 
眉目 -0.0103727 -0.00489079 0.00830779 0.00725095 0.00038233 0.0066326 0.000590554 -0.00347675 -0.00961784 -0.00845625 -0.00486941 -0.00694432 0.00794494 0.00561235 -0.00144436 -0.00311993 -0.000460872 0.00453799 -0.00879294 -0.00699037 -0.00588934 0.00137226 -0.00960392 -0.00825539 0.00411084 6.45364e-05 0.00277157 0.00477514 0.00858565 -0.00394189 0.0111925 0.00690604 -0.0039565 0.00394178 -0.0042669 -0.000322919 0.00140297 0.0065402 -0.0105566 0.0072537 -0.000448425 -0.00114184 -0.00361626 0.000108857 0.000747282 0.00618116 -0.00800579 0.00293802 0.00574104 -0.00109412 
登录 -0.0143977 -0.00528213 -0.00619226 -0.00884865 -0.0112871 -0.00931175 -0.0113978 0.000354711 -0.00908295 0.00667203 -0.00604048 -0.00683703 0.00316831 -0.00120452 -0.00182353 0.00579935 0.00190509 -0.00400001 -0.00742737 -0.0064661 0.00122485 -0.00548312 -0.00520375 0.00744489 0.00920597 0.00864211 -0.00304545 0.00110698 0.00619097 -0.00627277 -0.00767036 0.00394091 -0.00708076 0.00623928 -0.00549556 0.00270848 0.00733512 0.00187516 -0.00186693 0.00776211 0.00504833 -0.00827774 -0.00732297 -0.00693908 0.00654508 0.00517973 0.0095874 0.00454674 -0.00568629 -0.0072845 
哈弗 -0.00615372 0.000319981 0.00349184 -0.0083093 -0.00938115 0.00805092 -0.0107433 -0.000288248 -0.00914976 0.00800616 0.00396873 0.00105963 0.00479044 0.00446518 -0.00626768 -0.00509349 -0.000730647 -0.0050093 0.00197911 -0.00113924 0.00264904 0.00412072 -0.00276377 -0.00326086 0.00313699 0.00374525 -0.00395682 -0.0100255 0.00390709 0.000600677 -0.00839613 -0.00400813 0.00508979 -0.00804807 0.00126158 0.00924289 0.00754821 0.00515085 -0.00872325 0.00724256 -0.00333105 -0.00627165 0.00886666 0.00755382 -0.00175487 0.00484997 -0.00572821 0.00801895 -0.00487474 -0.00483667 
逃离 -0.0117827 0.00124002 0.00175823 -0.00392874 0.00210637 -0.00450891 0.00602774 0.000266214 -0.00174895 -0.00425107 0.0028848 0.0100439 -0.00640916 -0.0029768 0.00606491 0.00544823 0.00444914 0.000531722 0.00763895 -0.00129148 -0.0040822 -0.0038278 0.00418778 0.00613787 -0.00456773 -0.00437924 0.0113132 -0.0106525 -0.00758802 -0.00214298 -0.00489304 0.00130623 -0.00324461 -0.011178 0.000825325 0.00175513 -0.0046007 0.00831577 -0.00514151 -0.000193716 -0.000477526 0.00895465 -0.0016273 0.0011137 0.00765447 -0.00197787 0.00259704 0.00445556 0.00331314 -0.00339776 
遍 0.0081578 -0.00239645 -0.0084446 -0.00352726 -0.00825607 -0.00144833 -0.00268287 -0.00166234 0.00907172 -0.00439034 0.00602878 0.000755845 0.00360105 -0.00608927 0.00227119 0.00912382 0.0076811 0.00132134 -0.00171396 -0.00655702 -0.00110817 -0.00186076 0.00651598 0.00906557 0.00921354 -0.00415068 -0.00537011 -0.00348841 0.00895243 0.00638149 0.00709929 0.00147557 -0.00844469 0.00669252 -0.00193286 -0.00552455 0.00836773 0.00920545 -0.00342314 0.00903758 0.0063235 0.00938274 0.00272057 -0.0011895 0.00120065 0.000272721 0.00976368 0.000558492 -0.00858043 -0.00816282 
停停 0.00268728 0.00665465 -0.00592506 0.0068372 0.00779981 0.00459376 0.00750998 0.00791366 -0.0091998 -0.00474885 0.00611229 0.0088495 -0.00493437 0.00283531 0.00978471 0.00151007 -0.000579743 -0.00377901 -8.64477e-05 0.00677245 -0.00162889 0.00591018 0.00148092 -0.0100405 -0.00405545 0.00871686 0.0068859 -0.0070392 0.00672997 -0.00836319 -0.00462291 0.00909899 0.00531951 0.00847862 -0.00569144 0.00680892 0.00814686 0.00288852 0.00849255 0.00939876 0.00288248 -0.00353655 0.00253963 0.00715003 -0.00794797 -0.00586723 0.0103201 0.00268875 0.00466253 -0.00225438 
万事万物 -0.000468552 -0.00100803 0.00382044 0.00435368 0.000761064 0.00374598 0.000921424 0.00526602 0.00578854 0.00843507 -0.000971836 0.00824048 -0.00593655 -0.00682796 0.00140594 -0.00923619 -0.00870642 -0.00728686 -0.00457813 -0.00218827 -0.000834401 0.00409854 0.00767765 0.00223665 -0.00825163 0.00133084 -0.000698494 -0.0097125 0.00727415 0.00303666 -0.0059875 0.00381866 -0.00373685 -0.00646971 -0.00350365 -0.00447007 0.000246141 0.00303797 -0.0107509 0.000972382 -0.00532519 0.00388706 0.00837678 -0.00566081 0.000335147 0.00805647 -0.000516186 -0.00338858 0.00799902 0.00262297 
年纪 0.00671917 -0.00422886 -0.00809436 3.31961e-05 -0.00519682 0.00105299 0.00306472 -0.00550026 -0.00139956 -0.00542824 -0.00441823 0.0104811 -0.00989577 -0.00539801 0.00774306 -0.0057434 0.000922389 0.00334601 0.00916991 0.00747782 -0.00678415 0.0097077 0.00942239 0.00187102 -0.00551577 0.0056933 -0.00619512 -0.00989698 -0.00582798 0.00160238 -0.00559788 0.000941354 0.00721915 0.0026823 -0.00221591 -0.00572719 -0.00607892 0.00882278 -0.00872205 0.00820303 -0.00897885 0.000427609 0.0016306 0.0010995 -0.00394072 -0.00179074 0.0101121 0.000173128 0.00692826 -0.00682441 
已 -0.0178316 0.00200702 0.00795389 0.00401119 -0.0119496 -0.00346641 -0.000586813 -0.00741953 0.00610926 -0.00671292 -0.00565118 -0.00379817 -0.00722235 0.00945693 0.0127597 0.0102318 0.000151547 0.00691499 0.0121972 0.000490672 0.011635 -0.00213325 0.0072854 -0.0109623 0.0152562 0.0176755 0.00935251 -0.0152443 0.00298752 0.00832199 -0.00391786 -0.0033439 -0.00597648 0.000488417 -0.000382234 0.00782791 0.00282077 -0.00454965 0.000910005 0.00962989 -0.00384101 0.00425065 0.00923549 0.000144084 0.000432986 0.00114977 -0.00434504 0.000498579 -0.00345877 0.00226575 
长恨歌 -0.0175967 0.00302021 0.00630654 0.000250195 -0.00639262 0.00511553 -0.0015517 -0.00711671 0.0019268 -0.00160249 0.00691024 -0.0010353 -0.00545142 0.00199907 -0.00118774 0.00983737 -0.00672385 -0.00534597 0.00231534 -0.00589728 -0.00752322 -0.00571079 0.000301739 -0.0096467 0.0098209 0.00831424 0.00830042 -0.00790353 0.00411812 -0.00184046 -0.00496385 0.00880885 -0.0045235 0.00375216 -0.00913394 0.00698793 0.00488693 0.00086497 -0.00958294 -0.0010536 0.00464582 0.00807173 0.00772015 -0.000358931 -0.00838297 0.00844163 -0.00636708 -0.00660965 0.00288757 0.00596725 
高 -0.00369816 -0.00162297 0.0053839 -0.000295367 0.00699931 0.00512765 0.00747507 0.00889305 -0.000961411 -0.0074054 0.0021072 0.00344811 0.000903248 0.000151482 -0.000143694 0.00997718 0.00944427 -0.00700218 -0.00497074 0.0032896 0.00971284 -0.00859482 -0.0062257 0.0076567 -0.0050946 -0.00515129 0.000560533 0.00419266 -0.0030042 0.0031282 0.00443214 -0.00120881 -0.000951694 -0.00238415 -0.00495986 0.0092368 0.00277463 -0.0065914 -0.00809293 0.00549113 -0.00717949 0.00744313 -0.0042944 0.0102845 -0.00559507 -0.00736717 0.00446749 0.00477723 -0.00391975 -0.00592411 
并且 -0.0122114 0.000449243 0.00416626 -0.00845109 -0.00986609 -0.00490938 0.00557088 -0.00058176 0.004784 -0.00205502 -0.00487113 0.00628115 -0.00382225 0.00024575 -0.00126566 0.00731204 -0.00685162 0.00580831 -0.00338862 -0.00511088 -0.00172067 -0.00735168 -0.0060401 0.00850101 0.0108624 0.0145433 -0.00609946 -0.00938212 -0.00361458 0.00427753 0.0106872 0.00189495 -0.00225871 -0.00693164 -0.0079919 0.00810395 0.00884433 -0.0106821 -0.00844981 0.00100849 0.0112244 0.00554946 -0.00750887 -0.00197117 -0.0111799 0.00534059 0.00358296 -0.000914248 -0.000104039 -0.0010572 
中旬 -0.00918125 -0.00521364 0.00152518 0.00729509 0.00478947 -0.00453974 0.000188467 0.000102283 4.91943e-05 0.00483432 -0.00869238 0.0110128 -0.00371653 -0.00349414 0.0072687 0.00951973 -0.00241348 -0.00124191 0.00212276 0.00175261 0.000811072 0.00763266 0.00615613 0.00882185 0.00190898 0.00658014 0.00278544 0.00413189 0.00522801 -0.00258073 0.00382504 -0.00396119 -0.00968525 -0.000161194 0.00513344 0.00496427 0.0064535 -0.00154156 -0.00350067 0.00866023 0.00118875 0.00123822 -0.00496882 0.000800014 -0.00441143 0.00835967 0.00934063 0.00830705 0.0103864 0.00759659 
报仇雪恨 -0.0106852 -0.00812288 0.00565639 0.00639505 0.00441954 0.00718728 0.0018432 -0.00567109 0.000195849 0.00706918 0.0097444 3.03196e-07 0.00600822 -0.00749367 -0.00796789 -0.00401631 0.00229965 0.00118691 0.00708289 -0.00134858 0.00225382 -0.000380564 0.00234753 -0.00378771 0.00939651 -0.00067243 0.00579273 0.00505848 -0.00577005 -0.00463591 -0.00240875 -0.00450307 0.00491546 -0.00120223 -0.00574668 -0.00206837 -0.00781186 -0.00996815 -0.00831578 0.00973894 -0.00186002 -0.003226 -0.000330732 -0.00485809 0.00490796 0.00247784 0.00221438 -0.00226613 -6.58895e-06 -0.00577802 
没想到 -0.00278459 -0.000437701 -0.00750673 -0.00122579 0.00810908 0.00422854 -0.00837948 -0.00302692 -0.00841018 -0.000359143 -0.00167525 -0.00545381 -0.0100015 -0.0062913 0.0112628 -0.00431215 -0.00979884 0.00888781 -0.00600248 -0.00398092 -0.00324546 -0.00779778 0.00543225 0.00936632 0.00584582 0.00763192 -0.00106728 -0.00488684 -0.00857232 0.0115061 0.0070925 0.00236884 -0.00568133 -0.00551106 0.000383475 0.00265776 0.00801901 -0.00296581 0.00626837 -0.00946327 0.00717767 0.00174839 -0.00255885 -0.00705226 0.00321249 -0.00559769 0.00373323 0.00264716 0.00466648 -0.0102951 
隐身 0.00186559 0.00184366 0.00163781 0.00589721 0.00918527 0.00730367 0.00528777 0.00478596 -0.00492404 0.000226167 -0.0080167 0.00477604 -0.00374174 -0.00587202 0.00631194 0.00235191 0.00679399 -0.00451727 -0.00679845 -0.00410887 -0.00261016 0.00637231 -0.00639775 -0.00699842 0.00111605 -0.00473426 0.00949042 -0.00644863 -0.00144183 -0.00845494 -0.000336476 -0.00534637 0.00482648 -0.00652663 0.0086945 -0.00636277 -0.000101051 0.00142805 -0.00942455 0.00445953 0.00530868 0.00978409 0.00712955 0.00330679 -0.00793064 -0.00135999 0.00800693 0.00694312 -0.00974328 -0.00209765 
而且 -0.0193422 0.00253897 0.00486276 0.00752479 -0.00923517 0.00242855 -0.00804961 0.00631644 0.00640386 -0.0141365 0.00850013 0.0140462 0.00520046 0.00623846 0.0123751 -0.00797119 0.00210351 0.00892912 -0.00605873 0.00376606 0.00319427 -0.00662 0.00673167 0.00739669 0.00479869 0.0113829 0.011096 -0.0139952 0.00468487 0.0123916 -0.00214445 0.00871368 -0.00741106 -0.00203411 -1.75627e-06 0.00522091 -0.00216187 0.00653424 -0.0148983 0.00260409 0.0114265 0.00199286 0.000283555 0.000418941 -0.0093743 0.0030073 -0.00362969 -0.00832847 0.00133464 -0.00801814 
